{"learner":{"attributes":{"scikit_learn":"{\"_estimator_type\": \"regressor\"}"},"feature_names":[],"feature_types":[],"gradient_booster":{"model":{"gbtree_model_param":{"num_parallel_tree":"1","num_trees":"100"},"iteration_indptr":[0,1,2,3,4,5,6,7,8,9,10,11,12,13,14,15,16,17,18,19,20,21,22,23,24,25,26,27,28,29,30,31,32,33,34,35,36,37,38,39,40,41,42,43,44,45,46,47,48,49,50,51,52,53,54,55,56,57,58,59,60,61,62,63,64,65,66,67,68,69,70,71,72,73,74,75,76,77,78,79,80,81,82,83,84,85,86,87,88,89,90,91,92,93,94,95,96,97,98,99,100],"tree_info":[0,0,0,0,0,0,0,0,0,0,0,0,0,0,0,0,0,0,0,0,0,0,0,0,0,0,0,0,0,0,0,0,0,0,0,0,0,0,0,0,0,0,0,0,0,0,0,0,0,0,0,0,0,0,0,0,0,0,0,0,0,0,0,0,0,0,0,0,0,0,0,0,0,0,0,0,0,0,0,0,0,0,0,0,0,0,0,0,0,0,0,0,0,0,0,0,0,0,0,0],"trees":[{"base_weights":[-1.1362781E-8,-8.024229E0,6.762337E2,-2.6870827E1,8.3952446E1,4.9508313E2,1.0432823E3,-4.5069546E1,-2.5812345E0,6.062337E1,1.85969E2,4.025492E2,5.8469434E2,2.1584862E2,1.108157E3,-5.6881992E1,-3.507315E1,-1.2057616E1,1.300151E1,4.377796E1,8.907359E1,1.5978838E2,2.650472E2,1.0843508E2,4.19543E2,1.5720486E2,6.041066E2,2.1293817E2,1.1216472E3,-6.522694E1,-5.1726646E1,-4.0229244E1,-2.9420069E1,-1.7823093E1,-5.8414745E0,6.76753E0,2.0895275E1,3.6873043E1,5.5889465E1,7.859501E1,1.05852196E2,1.4474568E2,1.8982097E2,7.057273E1,2.9465268E2,1.0177704E2,1.2646412E2,5.957551E2,1.9845917E2,2.1738242E2,1.1279785E3,-2.1127686E1,-1.8609264E1,-1.6490425E1,-1.4655088E1,-1.295572E1,-1.1277454E1,-9.630842E0,-7.967853E0,-6.1966333E0,-4.4359546E0,-2.627058E0,-8.2028484E-1,1.0735644E0,3.0893288E0,5.2420034E0,7.442544E0,9.904431E0,1.2602445E1,1.5300615E1,1.8239265E1,2.1625437E1,2.5551565E1,2.9934372E1,3.4496826E1,4.0032917E1,4.6806793E1,5.3476803E1,6.029858E1,8.2044365E1,8.9646576E1,1.3993327E2,1.7952644E2,1.976906E2,3.391027E2],"categories":[],"categories_nodes":[],"categories_segments":[],"categories_sizes":[],"default_left":[0,0,0,0,0,0,0,0,0,0,0,0,0,0,0,0,0,0,0,0,0,0,0,0,0,0,0,0,0,0,0,0,0,0,0,0,0,0,0,0,0,0,0,0,0,0,0,0,0,0,0,0,0,0,0,0,0,0,0,0,0,0,0,0,0,0,0,0,0,0,0,0,0,0,0,0,0,0,0,0,0,0,0,0,0],"id":0,"left_children":[1,3,5,7,9,11,13,15,17,19,21,23,25,-1,27,29,31,33,35,37,39,41,43,-1,45,-1,47,-1,49,51,53,55,57,59,61,63,65,67,69,71,73,75,77,-1,79,-1,-1,81,-1,-1,83,-1,-1,-1,-1,-1,-1,-1,-1,-1,-1,-1,-1,-1,-1,-1,-1,-1,-1,-1,-1,-1,-1,-1,-1,-1,-1,-1,-1,-1,-1,-1,-1,-1,-1],"loss_changes":[2.687005E9,8.48315E8,3.8559693E8,1.7953686E8,1.9805786E8,3.2020864E7,3.9491456E7,2.7415456E7,2.5689522E7,3.2458944E7,3.2024768E7,1.187232E6,2.008576E6,0E0,7.780736E6,4.575168E6,3.664592E6,3.876961E6,3.237258E6,3.556088E6,4.420496E6,5.230688E6,3.328768E6,0E0,7.4208E4,0E0,3.2E5,0E0,3.058944E6,6.70816E5,6.1072E5,5.11288E5,4.59556E5,4.82398E5,4.7154262E5,4.1380162E5,3.88286E5,5.3556E5,3.67444E5,6.57952E5,5.25552E5,9.68128E5,4.65696E5,0E0,8.8464E4,0E0,0E0,1.72512E5,0E0,0E0,9.35936E5,0E0,0E0,0E0,0E0,0E0,0E0,0E0,0E0,0E0,0E0,0E0,0E0,0E0,0E0,0E0,0E0,0E0,0E0,0E0,0E0,0E0,0E0,0E0,0E0,0E0,0E0,0E0,0E0,0E0,0E0,0E0,0E0,0E0,0E0],"parents":[2147483647,0,0,1,1,2,2,3,3,4,4,5,5,6,6,7,7,8,8,9,9,10,10,11,11,12,12,14,14,15,15,16,16,17,17,18,18,19,19,20,20,21,21,22,22,24,24,26,26,28,28,29,29,30,30,31,31,32,32,33,33,34,34,35,35,36,36,37,37,38,38,39,39,40,40,41,41,42,42,44,44,47,47,50,50],"right_children":[2,4,6,8,10,12,14,16,18,20,22,24,26,-1,28,30,32,34,36,38,40,42,44,-1,46,-1,48,-1,50,52,54,56,58,60,62,64,66,68,70,72,74,76,78,-1,80,-1,-1,82,-1,-1,84,-1,-1,-1,-1,-1,-1,-1,-1,-1,-1,-1,-1,-1,-1,-1,-1,-1,-1,-1,-1,-1,-1,-1,-1,-1,-1,-1,-1,-1,-1,-1,-1,-1,-1],"split_conditions":[2.0266092E-1,5.380456E-2,3.7836096E-1,2.81966E-2,1.00439094E-1,2.7108395E-1,3.7795556E-1,1.7348748E-2,4.007014E-2,7.2222956E-2,1.4558393E-1,2.0313957E-1,2.7277878E-1,2.1584862E2,3.768322E-1,1.1267895E-2,2.2789769E-2,3.4062546E-2,4.657592E-2,6.270361E-2,8.522475E-2,1.22994415E-1,1.6692798E-1,1.0843508E2,2.0332518E-1,1.5720486E2,3.768615E-1,2.1293817E2,3.762705E-1,7.4191294E-3,1.4486595E-2,2.003507E-2,2.5466321E-2,3.1146668E-2,3.698331E-2,4.3166734E-2,5.0195124E-2,5.819059E-2,6.692357E-2,7.806937E-2,9.236547E-2,1.1007566E-1,1.3160041E-1,7.057273E1,1.6736755E-1,1.0177704E2,1.2646412E2,2.727397E-1,1.9845917E2,2.1738242E2,3.782242E-1,-2.1127686E1,-1.8609264E1,-1.6490425E1,-1.4655088E1,-1.295572E1,-1.1277454E1,-9.630842E0,-7.967853E0,-6.1966333E0,-4.4359546E0,-2.627058E0,-8.2028484E-1,1.0735644E0,3.0893288E0,5.2420034E0,7.442544E0,9.904431E0,1.2602445E1,1.5300615E1,1.8239265E1,2.1625437E1,2.5551565E1,2.9934372E1,3.4496826E1,4.0032917E1,4.6806793E1,5.3476803E1,6.029858E1,8.2044365E1,8.9646576E1,1.3993327E2,1.7952644E2,1.976906E2,3.391027E2],"split_indices":[59,59,58,59,59,59,4,59,59,59,59,0,16,0,30,59,59,59,59,59,59,59,59,0,44,0,22,0,0,59,59,59,59,59,59,59,59,59,59,59,59,59,59,0,43,0,0,46,0,0,23,0,0,0,0,0,0,0,0,0,0,0,0,0,0,0,0,0,0,0,0,0,0,0,0,0,0,0,0,0,0,0,0,0,0],"split_type":[0,0,0,0,0,0,0,0,0,0,0,0,0,0,0,0,0,0,0,0,0,0,0,0,0,0,0,0,0,0,0,0,0,0,0,0,0,0,0,0,0,0,0,0,0,0,0,0,0,0,0,0,0,0,0,0,0,0,0,0,0,0,0,0,0,0,0,0,0,0,0,0,0,0,0,0,0,0,0,0,0,0,0,0,0],"sum_hessian":[4.95184E5,4.89378E5,5.806E3,4.06155E5,8.3223E4,3.889E3,1.917E3,2.32189E5,1.73966E5,6.7735E4,1.5488E4,1.916E3,1.973E3,3.22E2,1.595E3,1.06425E5,1.25764E5,1.08179E5,6.5787E4,4.2546E4,2.5189E4,1.1638E4,3.85E3,5.67E2,1.349E3,4.85E2,1.488E3,5.4E1,1.541E3,4.0636E4,6.5789E4,6.577E4,5.9994E4,5.6123E4,5.2056E4,3.6759E4,2.9028E4,2.71E4,1.5446E4,1.5509E4,9.68E3,7.758E3,3.88E3,1.923E3,1.927E3,3.7E1,1.312E3,1.309E3,1.79E2,2.6E1,1.515E3,1.5463E4,2.5173E4,3.0923E4,3.4866E4,3.1004E4,3.4766E4,3.0954E4,2.904E4,2.9035E4,2.7088E4,2.6856E4,2.52E4,1.9314E4,1.7445E4,1.5489E4,1.3539E4,1.5478E4,1.1622E4,7.745E3,7.701E3,7.8E3,7.709E3,5.823E3,3.857E3,3.881E3,3.877E3,1.915E3,1.965E3,3.28E2,1.599E3,3E1,1.279E3,9E0,1.506E3],"tree_param":{"num_deleted":"0","num_feature":"60","num_nodes":"85","size_leaf_vector":"1"}},{"base_weights":[5.4432475E-3,-5.615937E0,4.7374155E2,-1.8445507E1,6.067116E1,3.4592288E2,7.305248E2,-3.106781E1,-6.3649935E-1,4.5140663E1,1.3620872E2,2.82616E2,4.1023553E2,1.5267393E2,7.766121E2,-3.9178474E1,-2.3464418E1,-7.1995573E0,1.0824382E1,3.317229E1,6.702836E1,1.1655517E2,1.8562637E2,7.352121E1,2.932104E2,3.722679E2,4.2434937E2,1.4668802E2,7.867613E2,-4.4911922E1,-3.50829E1,-2.691267E1,-1.930328E1,-1.1055811E1,-2.4391484E0,6.509309E0,1.6383938E1,2.776274E1,4.264167E1,5.8583855E1,7.884341E1,1.0559751E2,1.3290096E2,1.6447452E2,2.0657246E2,2.8743655E2,9.4675026E1,1.3354106E2,1.0927168E2,1.0130764E2,4.2745554E2,1.378221E2,7.9033325E2,-1.4490774E1,-1.2534866E1,-1.1141736E1,-9.871887E0,-8.622167E0,-7.4222994E0,-6.2977614E0,-5.1677794E0,-3.93041E0,-2.5766184E0,-1.2927071E0,-1.6979076E-2,1.3133507E0,2.7505167E0,4.2723823E0,5.7674403E0,7.4315658E0,9.5303335E0,1.1665365E1,1.3924116E1,1.6401844E1,1.914592E1,2.2075932E1,2.600022E1,3.0099936E1,3.47772E1,3.7457436E1,4.2275017E1,4.5814312E1,4.978131E1,5.6600826E1,6.2690174E1,6.619937E1,8.664563E1,1.26483635E2,1.3885078E2,1.1951498E2,2.3772086E2],"categories":[],"categories_nodes":[],"categories_segments":[],"categories_sizes":[],"default_left":[0,0,0,0,0,0,0,0,0,0,0,0,0,0,0,0,0,0,0,0,0,0,0,0,0,0,0,0,0,0,0,0,0,0,0,0,0,0,0,0,0,0,0,0,0,0,0,0,0,0,0,0,0,0,0,0,0,0,0,0,0,0,0,0,0,0,0,0,0,0,0,0,0,0,0,0,0,0,0,0,0,0,0,0,0,0,0,0,0,0,0],"id":1,"left_children":[1,3,5,7,9,11,13,15,17,19,21,23,25,-1,27,29,31,33,35,37,39,41,43,-1,45,47,49,-1,51,53,55,57,59,61,63,65,67,69,71,73,75,77,79,81,83,85,-1,-1,-1,-1,87,-1,89,-1,-1,-1,-1,-1,-1,-1,-1,-1,-1,-1,-1,-1,-1,-1,-1,-1,-1,-1,-1,-1,-1,-1,-1,-1,-1,-1,-1,-1,-1,-1,-1,-1,-1,-1,-1,-1,-1],"loss_changes":[1.3187054E9,4.161861E8,1.9034291E8,9.21691E7,9.309158E7,1.5677152E7,1.930656E7,1.4796656E7,1.2792475E7,1.7241576E7,1.3122048E7,7.06992E5,8.71936E5,0E0,4.271808E6,2.724704E6,1.776592E6,1.985191E6,1.4855385E6,2.178856E6,2.316976E6,1.720672E6,1.67132E6,0E0,1.05896E5,1.47368E5,2.3088E5,0E0,1.436416E6,5.11208E5,3.01904E5,2.68132E5,1.966E5,3.013935E5,2.1562088E5,1.9758312E5,1.644475E5,3.23686E5,2.17452E5,2.74476E5,3.92424E5,3.03832E5,2.32736E5,7.692E3,4.3312E4,4.896E4,0E0,0E0,0E0,0E0,8.232E4,0E0,9.18144E5,0E0,0E0,0E0,0E0,0E0,0E0,0E0,0E0,0E0,0E0,0E0,0E0,0E0,0E0,0E0,0E0,0E0,0E0,0E0,0E0,0E0,0E0,0E0,0E0,0E0,0E0,0E0,0E0,0E0,0E0,0E0,0E0,0E0,0E0,0E0,0E0,0E0,0E0],"parents":[2147483647,0,0,1,1,2,2,3,3,4,4,5,5,6,6,7,7,8,8,9,9,10,10,11,11,12,12,14,14,15,15,16,16,17,17,18,18,19,19,20,20,21,21,22,22,24,24,25,25,26,26,28,28,29,29,30,30,31,31,32,32,33,33,34,34,35,35,36,36,37,37,38,38,39,39,40,40,41,41,42,42,43,43,44,44,45,45,50,50,52,52],"right_children":[2,4,6,8,10,12,14,16,18,20,22,24,26,-1,28,30,32,34,36,38,40,42,44,-1,46,48,50,-1,52,54,56,58,60,62,64,66,68,70,72,74,76,78,80,82,84,86,-1,-1,-1,-1,88,-1,90,-1,-1,-1,-1,-1,-1,-1,-1,-1,-1,-1,-1,-1,-1,-1,-1,-1,-1,-1,-1,-1,-1,-1,-1,-1,-1,-1,-1,-1,-1,-1,-1,-1,-1,-1,-1,-1,-1],"split_conditions":[2.0266092E-1,5.490351E-2,3.7779927E-1,2.9046454E-2,1.0511817E-1,2.7284715E-1,3.7774065E-1,1.818395E-2,4.12277E-2,7.5002074E-2,1.4538856E-1,2.0294909E-1,2.724955E-1,1.5267393E2,3.7832677E-1,1.2161707E-2,2.377638E-2,3.5283603E-2,4.7865354E-2,6.464753E-2,8.7432414E-2,1.22994415E-1,1.6685471E-1,7.352121E1,2.7198264E-1,2.6550617E-2,2.7258343E-1,1.4668802E2,3.787468E-1,8.7281E-3,1.5482976E-2,2.127566E-2,2.6545733E-2,3.2323766E-2,3.8311817E-2,4.4627115E-2,5.1611546E-2,5.962167E-2,6.9458485E-2,8.132055E-2,9.586746E-2,1.1591718E-1,1.3158576E-1,1.4560835E-1,1.6695239E-1,2.0335937E-1,9.4675026E1,1.3354106E2,1.0927168E2,1.0130764E2,3.7771136E-1,1.378221E2,3.78444E-1,-1.4490774E1,-1.2534866E1,-1.1141736E1,-9.871887E0,-8.622167E0,-7.4222994E0,-6.2977614E0,-5.1677794E0,-3.93041E0,-2.5766184E0,-1.2927071E0,-1.6979076E-2,1.3133507E0,2.7505167E0,4.2723823E0,5.7674403E0,7.4315658E0,9.5303335E0,1.1665365E1,1.3924116E1,1.6401844E1,1.914592E1,2.2075932E1,2.600022E1,3.0099936E1,3.47772E1,3.7457436E1,4.2275017E1,4.5814312E1,4.978131E1,5.6600826E1,6.2690174E1,6.619937E1,8.664563E1,1.26483635E2,1.3885078E2,1.1951498E2,2.3772086E2],"split_indices":[59,59,59,59,59,57,1,59,59,59,58,19,3,0,32,59,59,59,59,59,59,59,58,0,6,0,44,0,7,59,59,59,59,59,59,59,59,59,59,59,59,59,58,55,49,54,0,0,0,0,18,0,57,0,0,0,0,0,0,0,0,0,0,0,0,0,0,0,0,0,0,0,0,0,0,0,0,0,0,0,0,0,0,0,0,0,0,0,0,0,0],"split_type":[0,0,0,0,0,0,0,0,0,0,0,0,0,0,0,0,0,0,0,0,0,0,0,0,0,0,0,0,0,0,0,0,0,0,0,0,0,0,0,0,0,0,0,0,0,0,0,0,0,0,0,0,0,0,0,0,0,0,0,0,0,0,0,0,0,0,0,0,0,0,0,0,0,0,0,0,0,0,0,0,0,0,0,0,0,0,0,0,0,0,0],"sum_hessian":[4.95184E5,4.89378E5,5.806E3,4.10021E5,7.9357E4,3.878E3,1.928E3,2.39952E5,1.70069E5,6.5825E4,1.3532E4,1.957E3,1.921E3,3.34E2,1.594E3,1.16101E5,1.23851E5,1.08142E5,6.1927E4,4.2557E4,2.3268E4,9.684E3,3.848E3,4.36E2,1.521E3,5.28E2,1.393E3,5.6E1,1.538E3,4.8373E4,6.7728E4,6.7724E4,5.6127E4,5.9744E4,4.8398E4,3.4867E4,2.706E4,2.7087E4,1.547E4,1.3573E4,9.695E3,5.802E3,3.882E3,1.919E3,1.929E3,1.22E3,3.01E2,4.7E1,4.81E2,5.2E1,1.341E3,1.8E1,1.52E3,2.3209E4,2.5164E4,3.4819E4,3.2909E4,3.6766E4,3.0958E4,3.095E4,2.5177E4,3.266E4,2.7084E4,2.7116E4,2.1282E4,1.9355E4,1.5512E4,1.5429E4,1.1631E4,1.5511E4,1.1576E4,7.756E3,7.714E3,7.776E3,5.797E3,5.805E3,3.89E3,3.85E3,1.952E3,1.946E3,1.936E3,2.24E2,1.695E3,2.37E2,1.692E3,2.8E1,1.192E3,1.162E3,1.79E2,9E0,1.511E3],"tree_param":{"num_deleted":"0","num_feature":"60","num_nodes":"91","size_leaf_vector":"1"}},{"base_weights":[8.134648E-3,-3.930305E0,3.319161E2,-1.2655483E1,4.389541E1,2.425242E2,5.129027E2,-2.1509975E1,2.5919393E-1,3.265383E1,9.537267E1,1.9742372E2,2.8763913E2,1.0695814E2,5.4409174E2,-2.7172916E1,-1.5924647E1,-4.374584E0,8.624964E0,2.4615017E1,4.79738E1,8.1533615E1,1.3014499E2,1.7314406E2,2.0647054E2,2.61025E2,2.9783502E2,1.0266528E2,5.498546E2,-3.1102028E1,-2.4029041E1,-1.834043E1,-1.2995982E1,-7.1100774E0,-9.8365647E-1,5.5039787E0,1.24247265E1,2.0603867E1,3.1165195E1,4.2766186E1,5.706184E1,7.383981E1,9.310599E1,1.1527249E2,1.4481189E2,4.8895493E1,5.4030678E1,4.772385E1,2.0791211E2,9.446804E1,7.652414E1,7.078289E1,3.0053268E2,1.08974686E2,5.5366943E2,-1.09612E1,-8.976842E0,-7.6014075E0,-6.742703E0,-5.8741693E0,-5.06026E0,-4.246421E0,-3.4749153E0,-2.5628085E0,-1.6115712E0,-7.0221573E-1,2.2289428E-1,1.1967005E0,2.1603668E0,3.2954452E0,4.305026E0,5.590126E0,7.123283E0,8.544922E0,1.0152672E1,1.1961517E1,1.3978395E1,1.6026648E1,1.8227873E1,2.107181E1,2.4249496E1,2.6238367E1,2.9598597E1,3.3381348E1,3.5458076E1,4.3052097E1,5.187239E1,6.1192467E1,6.650246E1,8.883608E1,9.966401E1,4.757969E1,1.6653941E2],"categories":[],"categories_nodes":[],"categories_segments":[],"categories_sizes":[],"default_left":[0,0,0,0,0,0,0,0,0,0,0,0,0,0,0,0,0,0,0,0,0,0,0,0,0,0,0,0,0,0,0,0,0,0,0,0,0,0,0,0,0,0,0,0,0,0,0,0,0,0,0,0,0,0,0,0,0,0,0,0,0,0,0,0,0,0,0,0,0,0,0,0,0,0,0,0,0,0,0,0,0,0,0,0,0,0,0,0,0,0,0,0,0],"id":2,"left_children":[1,3,5,7,9,11,13,15,17,19,21,23,25,-1,27,29,31,33,35,37,39,41,43,45,47,49,51,-1,53,55,57,59,61,63,65,67,69,71,73,75,77,79,81,83,85,-1,-1,-1,87,-1,-1,-1,89,-1,91,-1,-1,-1,-1,-1,-1,-1,-1,-1,-1,-1,-1,-1,-1,-1,-1,-1,-1,-1,-1,-1,-1,-1,-1,-1,-1,-1,-1,-1,-1,-1,-1,-1,-1,-1,-1,-1,-1],"loss_changes":[6.473069E8,2.042125E8,9.382554E7,4.7327708E7,4.369112E7,7.856192E6,9.165344E6,7.765616E6,6.5258355E6,7.631188E6,6.501688E6,3.92136E5,4.49216E5,0E0,1.670912E6,1.505264E6,8.74348E5,1.00490275E6,7.11555E5,1.067334E6,1.0069E6,8.55256E5,8.2334E5,8.464E3,6.3528E4,9.4524E4,1.62352E5,0E0,9.03744E5,3.4622E5,1.37152E5,1.23398E5,9.1325E4,1.4927025E5,1.1334953E5,8.468994E4,7.4862E4,1.55549E5,1.0987E5,1.48428E5,1.01274E5,1.4086E5,1.12526E5,9.254E3,4.6132E4,0E0,0E0,0E0,2.8964E4,0E0,0E0,0E0,8.8232E4,0E0,7.89216E5,0E0,0E0,0E0,0E0,0E0,0E0,0E0,0E0,0E0,0E0,0E0,0E0,0E0,0E0,0E0,0E0,0E0,0E0,0E0,0E0,0E0,0E0,0E0,0E0,0E0,0E0,0E0,0E0,0E0,0E0,0E0,0E0,0E0,0E0,0E0,0E0,0E0,0E0],"parents":[2147483647,0,0,1,1,2,2,3,3,4,4,5,5,6,6,7,7,8,8,9,9,10,10,11,11,12,12,14,14,15,15,16,16,17,17,18,18,19,19,20,20,21,21,22,22,23,23,24,24,25,25,26,26,28,28,29,29,30,30,31,31,32,32,33,33,34,34,35,35,36,36,37,37,38,38,39,39,40,40,41,41,42,42,43,43,44,44,48,48,52,52,54,54],"right_children":[2,4,6,8,10,12,14,16,18,20,22,24,26,-1,28,30,32,34,36,38,40,42,44,46,48,50,52,-1,54,56,58,60,62,64,66,68,70,72,74,76,78,80,82,84,86,-1,-1,-1,88,-1,-1,-1,90,-1,92,-1,-1,-1,-1,-1,-1,-1,-1,-1,-1,-1,-1,-1,-1,-1,-1,-1,-1,-1,-1,-1,-1,-1,-1,-1,-1,-1,-1,-1,-1,-1,-1,-1,-1,-1,-1,-1,-1],"split_conditions":[2.0266092E-1,5.5968273E-2,3.7782857E-1,2.9603254E-2,1.0511817E-1,2.7257854E-1,3.787468E-1,1.8701676E-2,4.213128E-2,7.650641E-2,1.4558393E-1,2.0342775E-1,2.723923E-1,1.0695814E2,3.7832677E-1,1.2777118E-2,2.4289224E-2,3.5918552E-2,4.8798237E-2,6.5795325E-2,8.97573E-2,1.2297488E-1,1.6668376E-1,2.0351566E-1,2.0351566E-1,2.6550617E-2,2.728667E-1,1.0266528E2,3.762705E-1,6.212727E-3,1.6083736E-2,2.174943E-2,2.7063461E-2,3.2939177E-2,3.9034683E-2,4.5359746E-2,5.2661654E-2,6.1057627E-2,7.0835836E-2,8.3163604E-2,9.588212E-2,1.1591718E-1,1.3164437E-1,1.4529088E-1,2.0230438E-1,4.8895493E1,5.4030678E1,4.772385E1,2.7215847E-1,9.446804E1,7.652414E1,7.078289E1,3.762705E-1,1.08974686E2,3.7844887E-1,-1.09612E1,-8.976842E0,-7.6014075E0,-6.742703E0,-5.8741693E0,-5.06026E0,-4.246421E0,-3.4749153E0,-2.5628085E0,-1.6115712E0,-7.0221573E-1,2.2289428E-1,1.1967005E0,2.1603668E0,3.2954452E0,4.305026E0,5.590126E0,7.123283E0,8.544922E0,1.0152672E1,1.1961517E1,1.3978395E1,1.6026648E1,1.8227873E1,2.107181E1,2.4249496E1,2.6238367E1,2.9598597E1,3.3381348E1,3.5458076E1,4.3052097E1,5.187239E1,6.1192467E1,6.650246E1,8.883608E1,9.966401E1,4.757969E1,1.6653941E2],"split_indices":[59,59,55,59,59,58,7,59,59,59,59,5,1,0,32,59,59,59,59,59,59,58,57,42,42,0,31,0,0,59,59,59,59,59,59,59,59,59,59,59,58,59,57,5,57,0,0,0,0,0,0,0,0,0,52,0,0,0,0,0,0,0,0,0,0,0,0,0,0,0,0,0,0,0,0,0,0,0,0,0,0,0,0,0,0,0,0,0,0,0,0,0,0],"split_type":[0,0,0,0,0,0,0,0,0,0,0,0,0,0,0,0,0,0,0,0,0,0,0,0,0,0,0,0,0,0,0,0,0,0,0,0,0,0,0,0,0,0,0,0,0,0,0,0,0,0,0,0,0,0,0,0,0,0,0,0,0,0,0,0,0,0,0,0,0,0,0,0,0,0,0,0,0,0,0,0,0,0,0,0,0,0,0,0,0,0,0,0,0],"sum_hessian":[4.95184E5,4.89378E5,5.806E3,4.13873E5,7.5505E4,3.888E3,1.918E3,2.45532E5,1.68341E5,6.1973E4,1.3532E4,1.947E3,1.941E3,3.21E2,1.597E3,1.21917E5,1.23615E5,1.08335E5,6.0006E4,4.0647E4,2.1326E4,9.682E3,3.85E3,5.34E2,1.413E3,5.45E2,1.396E3,4.6E1,1.551E3,5.4187E4,6.773E4,6.7736E4,5.5879E4,5.9962E4,4.8373E4,3.2947E4,2.7059E4,2.5212E4,1.5435E4,1.3561E4,7.765E3,5.82E3,3.862E3,1.916E3,1.934E3,2.27E2,3.07E2,4.5E1,1.368E3,4.9E1,4.96E2,6.2E1,1.334E3,3.3E1,1.518E3,9.655E3,4.4532E4,3.6748E4,3.0982E4,3.6767E4,3.0969E4,3.0696E4,2.5183E4,3.2868E4,2.7094E4,2.7085E4,2.1288E4,1.741E4,1.5537E4,1.5485E4,1.1574E4,1.5497E4,9.715E3,7.716E3,7.719E3,7.729E3,5.832E3,3.921E3,3.844E3,3.849E3,1.971E3,1.924E3,1.938E3,8.25E2,1.091E3,1.854E3,8E1,1.076E3,2.92E2,1.18E3,1.54E2,6E0,1.512E3],"tree_param":{"num_deleted":"0","num_feature":"60","num_nodes":"93","size_leaf_vector":"1"}},{"base_weights":[8.826383E-3,-2.7537308E0,2.3241553E2,-8.76839E0,3.1239717E1,1.6947801E2,3.5918152E2,-1.4937371E1,4.9788636E-1,2.2539701E1,6.3869785E1,1.3761903E2,2.0066638E2,2.493231E2,3.8136774E2,-1.8909721E1,-1.0905095E1,-2.9658535E0,6.048031E0,1.6737093E1,3.1251637E1,5.49253E1,9.093553E1,-1.2604431E1,1.381733E2,1.7698578E2,2.0644383E2,7.580314E1,2.0077579E2,2.3847177E2,3.8648196E2,-2.335394E1,-1.733427E1,-1.2550233E1,-8.78766E0,-4.7163076E0,-6.888776E-1,3.8546882E0,9.025083E0,1.4106841E1,2.0025146E1,2.6956318E1,3.552103E1,4.7611786E1,6.23267E1,8.082353E1,1.01010735E2,-4.6881466E0,-1.7024755E0,3.540938E1,1.4287318E2,6.701318E1,5.192397E1,1.8560173E2,2.102262E2,6.988463E1,1.438283E2,7.4956604E1,1.4873294E2,1.6700876E2,3.882342E2,-8.575023E0,-6.7976437E0,-5.751836E0,-4.897645E0,-4.0340505E0,-3.464632E0,-2.8688402E0,-2.368205E0,-1.6919204E0,-1.0552303E0,-4.8806864E-1,1.0008885E-1,8.343675E-1,1.5996765E0,2.3166301E0,3.0013616E0,3.9380744E0,4.673612E0,5.4826255E0,6.5326357E0,7.6847234E0,8.898262E0,9.785595E0,1.1528635E1,1.3723752E1,1.5424228E1,1.76737E1,2.0674671E1,2.2457958E1,2.4621004E1,2.7602236E1,3.1091219E1,3.0858328E1,4.311856E1,5.786613E1,5.0312775E1,4.0356705E1,6.3332592E1,5.284254E1,1.054975E1,6.1976307E1,7.4302735E0,6.5354126E1,2.5514828E1,1.3524551E1,1.1673073E2],"categories":[],"categories_nodes":[],"categories_segments":[],"categories_sizes":[],"default_left":[0,0,0,0,0,0,0,0,0,0,0,0,0,0,0,0,0,0,0,0,0,0,0,0,0,0,0,0,0,0,0,0,0,0,0,0,0,0,0,0,0,0,0,0,0,0,0,0,0,0,0,0,0,0,0,0,0,0,0,0,0,0,0,0,0,0,0,0,0,0,0,0,0,0,0,0,0,0,0,0,0,0,0,0,0,0,0,0,0,0,0,0,0,0,0,0,0,0,0,0,0,0,0,0,0,0,0],"id":3,"left_children":[1,3,5,7,9,11,13,15,17,19,21,23,25,27,29,31,33,35,37,39,41,43,45,47,49,51,53,-1,55,57,59,61,63,65,67,69,71,73,75,77,79,81,83,85,87,89,91,-1,-1,-1,93,-1,-1,95,97,-1,99,-1,101,103,105,-1,-1,-1,-1,-1,-1,-1,-1,-1,-1,-1,-1,-1,-1,-1,-1,-1,-1,-1,-1,-1,-1,-1,-1,-1,-1,-1,-1,-1,-1,-1,-1,-1,-1,-1,-1,-1,-1,-1,-1,-1,-1,-1,-1,-1,-1],"loss_changes":[3.1792765E8,1.0005617E8,4.634912E7,2.3768582E7,2.0883768E7,3.836608E6,4.606544E6,3.998084E6,3.1947625E6,2.935788E6,3.743996E6,1.62192E5,2.32024E5,2.514E3,1.079312E6,8.79996E5,4.31412E5,4.0783794E5,4.1694525E5,3.01252E5,4.24858E5,6.27216E5,3.83566E5,7.888513E1,1.64892E5,3.2368E4,8.4904E4,0E0,1.41318125E4,2.2088E4,5.2968E5,1.18972E5,1.71868E5,6.244E4,3.744575E4,6.4025375E4,4.2657844E4,5.8308125E4,3.4494E4,2.7739E4,4.70505E4,4.1222E4,9.6998E4,3.9224E4,1.26038E5,8.158E3,3.5918E4,0E0,0E0,0E0,3.8332E4,0E0,0E0,2.39E2,5.998E4,0E0,3.594097E4,0E0,5.943117E4,3.9805688E4,4.392E5,0E0,0E0,0E0,0E0,0E0,0E0,0E0,0E0,0E0,0E0,0E0,0E0,0E0,0E0,0E0,0E0,0E0,0E0,0E0,0E0,0E0,0E0,0E0,0E0,0E0,0E0,0E0,0E0,0E0,0E0,0E0,0E0,0E0,0E0,0E0,0E0,0E0,0E0,0E0,0E0,0E0,0E0,0E0,0E0,0E0,0E0],"parents":[2147483647,0,0,1,1,2,2,3,3,4,4,5,5,6,6,7,7,8,8,9,9,10,10,11,11,12,12,13,13,14,14,15,15,16,16,17,17,18,18,19,19,20,20,21,21,22,22,23,23,24,24,25,25,26,26,28,28,29,29,30,30,31,31,32,32,33,33,34,34,35,35,36,36,37,37,38,38,39,39,40,40,41,41,42,42,43,43,44,44,45,45,46,46,50,50,53,53,54,54,56,56,58,58,59,59,60,60],"right_children":[2,4,6,8,10,12,14,16,18,20,22,24,26,28,30,32,34,36,38,40,42,44,46,48,50,52,54,-1,56,58,60,62,64,66,68,70,72,74,76,78,80,82,84,86,88,90,92,-1,-1,-1,94,-1,-1,96,98,-1,100,-1,102,104,106,-1,-1,-1,-1,-1,-1,-1,-1,-1,-1,-1,-1,-1,-1,-1,-1,-1,-1,-1,-1,-1,-1,-1,-1,-1,-1,-1,-1,-1,-1,-1,-1,-1,-1,-1,-1,-1,-1,-1,-1,-1,-1,-1,-1,-1,-1],"split_conditions":[2.024509E-1,5.6471348E-2,3.7779927E-1,2.9998876E-2,1.00439094E-1,2.7108395E-1,3.7795556E-1,1.9048456E-2,4.181869E-2,7.367357E-2,1.4530064E-1,3.3378758E-2,2.7316952E-1,3.7774065E-1,3.765587E-1,1.03398925E-2,2.4792299E-2,3.614811E-2,4.9247585E-2,6.365115E-2,8.3163604E-2,1.15990445E-1,1.6692798E-1,2.127566E-2,2.0313957E-1,2.6550617E-2,2.7215847E-1,7.580314E1,3.768322E-1,3.768322E-1,3.7728155E-1,4.674198E-3,1.3944447E-2,2.205225E-2,2.744443E-2,3.3378758E-2,3.8795356E-2,4.576514E-2,5.211951E-2,6.0310345E-2,6.819836E-2,7.966162E-2,8.97573E-2,1.1001705E-1,1.3160041E-1,1.4532995E-1,1.6668376E-1,-4.6881466E0,-1.7024755E0,3.540938E1,2.0300283E-1,6.701318E1,5.192397E1,2.709472E-1,2.7257854E-1,6.988463E1,3.7795556E-1,7.4956604E1,3.76925E-1,3.777895E-1,3.76925E-1,-8.575023E0,-6.7976437E0,-5.751836E0,-4.897645E0,-4.0340505E0,-3.464632E0,-2.8688402E0,-2.368205E0,-1.6919204E0,-1.0552303E0,-4.8806864E-1,1.0008885E-1,8.343675E-1,1.5996765E0,2.3166301E0,3.0013616E0,3.9380744E0,4.673612E0,5.4826255E0,6.5326357E0,7.6847234E0,8.898262E0,9.785595E0,1.1528635E1,1.3723752E1,1.5424228E1,1.76737E1,2.0674671E1,2.2457958E1,2.4621004E1,2.7602236E1,3.1091219E1,3.0858328E1,4.311856E1,5.786613E1,5.0312775E1,4.0356705E1,6.3332592E1,5.284254E1,1.054975E1,6.1976307E1,7.4302735E0,6.5354126E1,2.5514828E1,1.3524551E1,1.1673073E2],"split_indices":[58,59,59,59,59,59,3,59,59,59,56,59,28,1,28,59,59,59,59,59,59,57,59,59,28,0,0,0,30,30,10,59,59,59,59,59,59,59,59,59,59,59,59,57,59,48,33,0,0,0,53,0,0,7,58,0,4,0,26,8,26,0,0,0,0,0,0,0,0,0,0,0,0,0,0,0,0,0,0,0,0,0,0,0,0,0,0,0,0,0,0,0,0,0,0,0,0,0,0,0,0,0,0,0,0,0,0],"split_type":[0,0,0,0,0,0,0,0,0,0,0,0,0,0,0,0,0,0,0,0,0,0,0,0,0,0,0,0,0,0,0,0,0,0,0,0,0,0,0,0,0,0,0,0,0,0,0,0,0,0,0,0,0,0,0,0,0,0,0,0,0,0,0,0,0,0,0,0,0,0,0,0,0,0,0,0,0,0,0,0,0,0,0,0,0,0,0,0,0,0,0,0,0,0,0,0,0,0,0,0,0,0,0,0,0,0,0],"sum_hessian":[4.95184E5,4.89368E5,5.816E3,4.15799E5,7.3569E4,3.888E3,1.928E3,2.49617E5,1.66182E5,5.8084E4,1.5485E4,1.926E3,1.962E3,3.26E2,1.602E3,1.25741E5,1.23876E5,1.02324E5,6.3858E4,3.4865E4,2.3219E4,1.1641E4,3.844E3,7E0,1.919E3,3.91E2,1.571E3,3.01E2,2.5E1,5.7E1,1.545E3,3.2905E4,9.2836E4,6.971E4,5.4166E4,5.785E4,4.4474E4,3.677E4,2.7088E4,1.9373E4,1.5492E4,1.1578E4,1.1641E4,5.859E3,5.782E3,1.923E3,1.921E3,4E0,3E0,3.68E2,1.551E3,2.6E1,3.65E2,2.49E2,1.322E3,1.4E1,1.1E1,4.9E1,8E0,1.3E1,1.532E3,3.856E3,2.9049E4,3.2885E4,5.9951E4,3.6774E4,3.2936E4,2.9001E4,2.5165E4,3.2677E4,2.5173E4,2.3195E4,2.1279E4,2.1299E4,1.5471E4,1.1628E4,1.546E4,1.1636E4,7.737E3,7.753E3,7.739E3,7.748E3,3.83E3,5.832E3,5.809E3,3.939E3,1.92E3,3.815E3,1.967E3,3.43E2,1.58E3,4.42E2,1.479E3,3.5E1,1.516E3,1.7E2,7.9E1,1.7E1,1.305E3,8E0,3E0,5E0,3E0,7E0,6E0,4E0,1.528E3],"tree_param":{"num_deleted":"0","num_feature":"60","num_nodes":"107","size_leaf_vector":"1"}},{"base_weights":[8.6132595E-3,-1.9279006E0,1.6283748E2,-6.0732713E0,2.2248585E1,1.1942581E2,2.5318456E2,-1.0376935E1,5.678471E-1,1.6553997E1,4.6822617E1,9.659963E1,1.4103906E2,1.8001755E2,2.6635E2,-1.3980241E1,-8.079328E0,-1.6112359E0,4.9920497E0,1.25163E1,2.3495571E1,4.0096375E1,6.3627804E1,2.5340101E1,1.0074364E2,1.2072689E2,1.4471118E2,5.467862E1,1.3829301E2,1.2631097E2,2.7060522E2,-1.6666344E1,-1.2862738E1,-9.57907E0,-6.4219804E0,-2.8527105E0,3.5734072E-1,3.6487405E0,6.7869663E0,1.0531228E1,1.5259046E1,2.1008245E1,2.780319E1,3.6290146E1,4.5819565E1,5.6735004E1,7.050543E1,-1.1005201E1,1.0130384E2,4.779754E1,3.535535E1,1.4187833E2,1.7062263E2,5.0492462E1,4.520874E1,-6.50272E0,1.3826114E2,1.5053293E2,2.7287604E2,-6.6952896E0,-4.8780107E0,-4.0845966E0,-3.6567576E0,-3.0891483E0,-2.58612E0,-2.2163641E0,-1.7157514E0,-1.0644319E0,-5.4413307E-1,-8.2392186E-2,3.3477858E-1,8.883516E-1,1.3604622E0,1.8189946E0,2.191175E0,2.9148607E0,3.583762E0,4.1792727E0,4.975407E0,5.8845634E0,6.866934E0,7.721587E0,8.9456835E0,1.0429914E1,1.1763848E1,1.2964019E1,1.4546932E1,1.6159027E1,1.7694756E1,1.951317E1,2.190709E1,-4.47122E0,-1.7055207E0,2.9757223E1,3.504921E1,4.171601E1,5.1373356E1,5.2486988E1,3.3599934E1,2.3416626E1,6.9084964E0,-2.2235696E0,-4.2990077E-1,2.1470213E1,4.732008E1,5.21898E1,7.170261E0,-1.2719459E1,8.2120766E1],"categories":[],"categories_nodes":[],"categories_segments":[],"categories_sizes":[],"default_left":[0,0,0,0,0,0,0,0,0,0,0,0,0,0,0,0,0,0,0,0,0,0,0,0,0,0,0,0,0,0,0,0,0,0,0,0,0,0,0,0,0,0,0,0,0,0,0,0,0,0,0,0,0,0,0,0,0,0,0,0,0,0,0,0,0,0,0,0,0,0,0,0,0,0,0,0,0,0,0,0,0,0,0,0,0,0,0,0,0,0,0,0,0,0,0,0,0,0,0,0,0,0,0,0,0,0,0,0,0],"id":4,"left_children":[1,3,5,7,9,11,13,15,17,19,21,23,25,27,29,31,33,35,37,39,41,43,45,-1,47,49,51,-1,53,55,57,59,61,63,65,67,69,71,73,75,77,79,81,83,85,87,89,91,93,-1,-1,95,97,-1,99,101,103,105,107,-1,-1,-1,-1,-1,-1,-1,-1,-1,-1,-1,-1,-1,-1,-1,-1,-1,-1,-1,-1,-1,-1,-1,-1,-1,-1,-1,-1,-1,-1,-1,-1,-1,-1,-1,-1,-1,-1,-1,-1,-1,-1,-1,-1,-1,-1,-1,-1,-1,-1],"loss_changes":[1.5614224E8,4.904464E7,2.279648E7,1.1939489E7,1.0022632E7,1.926716E6,1.770728E6,2.098426E6,1.5836191E6,1.629618E6,1.520604E6,8.7822E4,1.33048E5,2.046E3,9.18056E5,2.96038E5,3.84671E5,2.689735E5,1.30675375E5,2.000295E5,2.28544E5,2.08028E5,1.78514E5,0E0,9.0199E4,1.6188E4,1.00872E5,0E0,4.5475844E4,7.866919E4,3.81552E5,6.621E4,3.5166E4,5.5848E4,4.987425E4,4.875525E4,2.0406537E4,1.8877844E4,8.635375E3,2.44815E4,2.694625E4,3.50945E4,3.1797E4,2.44045E4,2.4634E4,9.2665E3,2.1698E4,8.120911E1,3.4869E4,0E0,0E0,1.0411E5,2.18185E4,0E0,2.573833E3,1.2425125E1,4.7152625E4,8.783069E4,4.23648E5,0E0,0E0,0E0,0E0,0E0,0E0,0E0,0E0,0E0,0E0,0E0,0E0,0E0,0E0,0E0,0E0,0E0,0E0,0E0,0E0,0E0,0E0,0E0,0E0,0E0,0E0,0E0,0E0,0E0,0E0,0E0,0E0,0E0,0E0,0E0,0E0,0E0,0E0,0E0,0E0,0E0,0E0,0E0,0E0,0E0,0E0,0E0,0E0,0E0,0E0],"parents":[2147483647,0,0,1,1,2,2,3,3,4,4,5,5,6,6,7,7,8,8,9,9,10,10,11,11,12,12,13,13,14,14,15,15,16,16,17,17,18,18,19,19,20,20,21,21,22,22,24,24,25,25,26,26,28,28,29,29,30,30,31,31,32,32,33,33,34,34,35,35,36,36,37,37,38,38,39,39,40,40,41,41,42,42,43,43,44,44,45,45,46,46,47,47,48,48,51,51,52,52,54,54,55,55,56,56,57,57,58,58],"right_children":[2,4,6,8,10,12,14,16,18,20,22,24,26,28,30,32,34,36,38,40,42,44,46,-1,48,50,52,-1,54,56,58,60,62,64,66,68,70,72,74,76,78,80,82,84,86,88,90,92,94,-1,-1,96,98,-1,100,102,104,106,108,-1,-1,-1,-1,-1,-1,-1,-1,-1,-1,-1,-1,-1,-1,-1,-1,-1,-1,-1,-1,-1,-1,-1,-1,-1,-1,-1,-1,-1,-1,-1,-1,-1,-1,-1,-1,-1,-1,-1,-1,-1,-1,-1,-1,-1,-1,-1,-1,-1,-1],"split_conditions":[2.0230438E-1,5.6989074E-2,3.7757948E-1,3.0379845E-2,1.050791E-1,2.7108395E-1,3.7774065E-1,1.6718684E-2,4.3874945E-2,7.650641E-2,1.4536415E-1,2.0267558E-1,2.7291554E-1,3.762705E-1,3.7779927E-1,9.7098285E-3,2.3424717E-2,3.7637796E-2,5.0644472E-2,6.5795325E-2,8.97573E-2,1.23038374E-1,1.6692798E-1,2.5340101E1,2.6907166E-2,2.1270776E-2,3.7774065E-1,5.467862E1,3.767736E-1,3.3378758E-2,3.78444E-1,3.7315437E-3,1.3539056E-2,2.0665133E-2,2.6169648E-2,3.4653537E-2,4.064159E-2,4.7425773E-2,5.3218458E-2,6.179026E-2,7.0835836E-2,8.318315E-2,9.586746E-2,1.1593184E-1,1.3169321E-1,1.4538369E-1,1.6689378E-1,1.03398925E-2,2.7192894E-1,4.779754E1,3.535535E1,3.7771136E-1,3.7774065E-1,5.0492462E1,3.7774065E-1,2.5622616E-2,2.7257854E-1,3.7650007E-1,3.7818024E-1,-6.6952896E0,-4.8780107E0,-4.0845966E0,-3.6567576E0,-3.0891483E0,-2.58612E0,-2.2163641E0,-1.7157514E0,-1.0644319E0,-5.4413307E-1,-8.2392186E-2,3.3477858E-1,8.883516E-1,1.3604622E0,1.8189946E0,2.191175E0,2.9148607E0,3.583762E0,4.1792727E0,4.975407E0,5.8845634E0,6.866934E0,7.721587E0,8.9456835E0,1.0429914E1,1.1763848E1,1.2964019E1,1.4546932E1,1.6159027E1,1.7694756E1,1.951317E1,2.190709E1,-4.47122E0,-1.7055207E0,2.9757223E1,3.504921E1,4.171601E1,5.1373356E1,5.2486988E1,3.3599934E1,2.3416626E1,6.9084964E0,-2.2235696E0,-4.2990077E-1,2.1470213E1,4.732008E1,5.21898E1,7.170261E0,-1.2719459E1,8.2120766E1],"split_indices":[57,59,39,59,57,59,1,59,59,59,57,8,37,0,59,59,59,59,59,59,59,57,59,0,59,28,1,0,13,59,20,59,59,59,59,59,59,59,59,59,59,58,59,58,54,1,18,59,40,0,0,56,41,0,41,59,58,19,35,0,0,0,0,0,0,0,0,0,0,0,0,0,0,0,0,0,0,0,0,0,0,0,0,0,0,0,0,0,0,0,0,0,0,0,0,0,0,0,0,0,0,0,0,0,0,0,0,0,0],"split_type":[0,0,0,0,0,0,0,0,0,0,0,0,0,0,0,0,0,0,0,0,0,0,0,0,0,0,0,0,0,0,0,0,0,0,0,0,0,0,0,0,0,0,0,0,0,0,0,0,0,0,0,0,0,0,0,0,0,0,0,0,0,0,0,0,0,0,0,0,0,0,0,0,0,0,0,0,0,0,0,0,0,0,0,0,0,0,0,0,0,0,0,0,0,0,0,0,0,0,0,0,0,0,0,0,0,0,0,0,0],"sum_hessian":[4.95184E5,4.89365E5,5.819E3,4.17739E5,7.1626E4,3.932E3,1.887E3,2.53477E5,1.64262E5,5.8152E4,1.3474E4,1.915E3,2.017E3,2.9E2,1.597E3,9.8693E4,1.54784E5,1.10056E5,5.4206E4,3.6768E4,2.1384E4,9.625E3,3.849E3,4.93E2,1.422E3,3.14E2,1.703E3,2.72E2,1.8E1,4.8E1,1.549E3,2.8992E4,6.9701E4,8.1253E4,7.3531E4,6.7492E4,4.2564E4,3.1005E4,2.3201E4,2.1333E4,1.5435E4,1.356E4,7.824E3,5.785E3,3.84E3,1.927E3,1.922E3,7E0,1.415E3,1.8E1,2.96E2,1.541E3,1.62E2,1.3E1,5E0,4E0,4.4E1,3E1,1.519E3,1.941E3,2.7051E4,3.291E4,3.6791E4,4.645E4,3.4803E4,3.0965E4,4.2566E4,4.0429E4,2.7063E4,2.322E4,1.9344E4,1.7461E4,1.3544E4,9.673E3,1.3528E4,1.354E4,7.793E3,7.716E3,7.719E3,7.798E3,5.762E3,3.872E3,3.952E3,3.811E3,1.974E3,1.952E3,1.888E3,8.57E2,1.07E3,6.15E2,1.307E3,3E0,4E0,1.252E3,1.63E2,1.411E3,1.3E2,1.49E2,1.3E1,1E0,4E0,3E0,1E0,1.1E1,3.3E1,2.5E1,5E0,4E0,1.515E3],"tree_param":{"num_deleted":"0","num_feature":"60","num_nodes":"109","size_leaf_vector":"1"}},{"base_weights":[7.69089E-3,-1.3489975E0,1.14142334E2,-4.389164E0,1.4830652E1,8.306707E1,1.7653925E2,-7.6594286E0,-3.3197728E-1,1.0701724E1,3.137452E1,6.756755E1,9.853977E1,1.2125877E2,1.8662062E2,-9.869515E0,-6.087727E0,-2.1688838E0,2.3054698E0,7.924334E0,1.5325229E1,2.7016397E1,4.4838455E1,5.5626846E1,6.9974495E1,9.675422E1,1.17060234E2,3.7626667E1,7.946829E1,7.817814E1,1.8832649E2,-1.1778305E1,-9.104991E0,-6.9382052E0,-5.099906E0,-3.503498E0,-1.3689497E0,1.3015549E0,4.0951843E0,6.6782584E0,9.790643E0,1.3834163E1,1.8295212E1,2.4458197E1,3.209709E1,3.9956463E1,4.9816715E1,1.7058907E1,4.7542274E1,6.7782295E1,7.942803E1,9.558675E1,3.7280396E1,1.2242346E2,6.28517E1,3.8938164E1,-6.8362327E0,3.3967125E1,4.259342E1,9.981644E1,1.9040652E2,-4.710796E0,-3.4433074E0,-2.879545E0,-2.591753E0,-2.2391276E0,-1.914851E0,-1.6742498E0,-1.3844789E0,-1.1132386E0,-9.2648804E-1,-5.546787E-1,-1.9487284E-1,2.0180398E-1,6.7336696E-1,1.0309836E0,1.3770919E0,1.7737135E0,2.2322001E0,2.6744237E0,3.2000582E0,3.7494442E0,4.551347E0,5.477703E0,2.5196795E1,6.7155604E0,7.955079E0,9.107752E0,1.0290813E1,1.1040813E1,1.2351964E1,2.0041235E1,1.4684671E1,1.5763912E1,1.0421245E1,1.9881256E1,2.8012089E1,9.7199255E-1,2.4057556E1,2.837885E1,3.8368233E1,1.5533258E1,3.690849E1,3.234171E1,-1.125947E1,2.332096E1,-1.3099363E1,3.0055874E1,-2.0800822E0,3.592316E1,9.015757E0,-5.4849863E0,5.7365803E1],"categories":[],"categories_nodes":[],"categories_segments":[],"categories_sizes":[],"default_left":[0,0,0,0,0,0,0,0,0,0,0,0,0,0,0,0,0,0,0,0,0,0,0,0,0,0,0,0,0,0,0,0,0,0,0,0,0,0,0,0,0,0,0,0,0,0,0,0,0,0,0,0,0,0,0,0,0,0,0,0,0,0,0,0,0,0,0,0,0,0,0,0,0,0,0,0,0,0,0,0,0,0,0,0,0,0,0,0,0,0,0,0,0,0,0,0,0,0,0,0,0,0,0,0,0,0,0,0,0,0,0,0,0],"id":5,"left_children":[1,3,5,7,9,11,13,15,17,19,21,23,25,27,29,31,33,35,37,39,41,43,45,47,49,51,53,-1,55,57,59,61,63,65,67,69,71,73,75,77,79,81,83,85,87,89,91,-1,93,95,97,99,-1,101,103,-1,105,-1,107,109,111,-1,-1,-1,-1,-1,-1,-1,-1,-1,-1,-1,-1,-1,-1,-1,-1,-1,-1,-1,-1,-1,-1,-1,-1,-1,-1,-1,-1,-1,-1,-1,-1,-1,-1,-1,-1,-1,-1,-1,-1,-1,-1,-1,-1,-1,-1,-1,-1,-1,-1,-1,-1],"loss_changes":[7.6677144E7,2.4071552E7,1.1264496E7,5.465941E6,5.287286E6,9.25042E5,1.054636E6,7.92274E5,8.907644E5,7.95383E5,9.05942E5,5.198E4,5.2896E4,4.24045E4,2.87364E5,1.38232E5,1.119575E5,1.15701E5,1.356166E5,8.9941E4,1.026945E5,1.51051E5,8.98535E4,6.045625E2,2.8065E4,4.5201E4,4.056725E4,0E0,1.3118706E5,2.8848781E4,2.76848E5,3.179825E4,1.54775E4,2.08595E4,1.435975E4,3.4842812E3,2.3397008E4,2.8676828E4,8.828969E3,1.350925E4,1.17955E4,2.746325E4,1.693825E4,3.2584E4,1.394225E4,5.8255E3,2.4253E4,0E0,1.3785E3,4.47535E4,1.7081625E4,4.2595E4,0E0,3.925E1,8.076079E4,0E0,4.0770395E4,0E0,4.3480668E4,5.0619812E4,2.6964E5,0E0,0E0,0E0,0E0,0E0,0E0,0E0,0E0,0E0,0E0,0E0,0E0,0E0,0E0,0E0,0E0,0E0,0E0,0E0,0E0,0E0,0E0,0E0,0E0,0E0,0E0,0E0,0E0,0E0,0E0,0E0,0E0,0E0,0E0,0E0,0E0,0E0,0E0,0E0,0E0,0E0,0E0,0E0,0E0,0E0,0E0,0E0,0E0,0E0,0E0,0E0,0E0],"parents":[2147483647,0,0,1,1,2,2,3,3,4,4,5,5,6,6,7,7,8,8,9,9,10,10,11,11,12,12,13,13,14,14,15,15,16,16,17,17,18,18,19,19,20,20,21,21,22,22,23,23,24,24,25,25,26,26,28,28,29,29,30,30,31,31,32,32,33,33,34,34,35,35,36,36,37,37,38,38,39,39,40,40,41,41,42,42,43,43,44,44,45,45,46,46,48,48,49,49,50,50,51,51,53,53,54,54,56,56,58,58,59,59,60,60],"right_children":[2,4,6,8,10,12,14,16,18,20,22,24,26,28,30,32,34,36,38,40,42,44,46,48,50,52,54,-1,56,58,60,62,64,66,68,70,72,74,76,78,80,82,84,86,88,90,92,-1,94,96,98,100,-1,102,104,-1,106,-1,108,110,112,-1,-1,-1,-1,-1,-1,-1,-1,-1,-1,-1,-1,-1,-1,-1,-1,-1,-1,-1,-1,-1,-1,-1,-1,-1,-1,-1,-1,-1,-1,-1,-1,-1,-1,-1,-1,-1,-1,-1,-1,-1,-1,-1,-1,-1,-1,-1,-1,-1,-1,-1,-1],"split_conditions":[2.024509E-1,5.546031E-2,3.76798E-1,2.7800977E-2,1.00395136E-1,2.7214628E-1,3.767736E-1,1.6391441E-2,3.9537758E-2,7.367357E-2,1.4560835E-1,2.0315424E-1,3.7774065E-1,3.787468E-1,3.78444E-1,9.3972385E-3,2.2350188E-2,3.1928144E-2,4.83147E-2,6.365115E-2,8.7432414E-2,1.23038374E-1,1.6694897E-1,2.0342775E-1,2.709472E-1,3.768322E-1,3.765587E-1,3.7626667E1,3.777895E-1,3.7795556E-1,3.7818024E-1,3.7120068E-3,1.3343688E-2,1.9536879E-2,2.4958363E-2,3.0541025E-2,3.635813E-2,4.4246145E-2,5.1132895E-2,5.8879267E-2,6.819836E-2,7.966162E-2,1.3160041E-1,1.1002193E-1,1.3182998E-1,1.4548625E-1,8.978661E-2,1.7058907E1,2.0318842E-1,2.7208522E-1,2.0250463E-1,3.7779927E-1,3.7280396E1,2.7248085E-1,3.7771136E-1,3.8938164E1,3.762705E-1,3.3967125E1,3.777895E-1,3.7832677E-1,3.7779927E-1,-4.710796E0,-3.4433074E0,-2.879545E0,-2.591753E0,-2.2391276E0,-1.914851E0,-1.6742498E0,-1.3844789E0,-1.1132386E0,-9.2648804E-1,-5.546787E-1,-1.9487284E-1,2.0180398E-1,6.7336696E-1,1.0309836E0,1.3770919E0,1.7737135E0,2.2322001E0,2.6744237E0,3.2000582E0,3.7494442E0,4.551347E0,5.477703E0,2.5196795E1,6.7155604E0,7.955079E0,9.107752E0,1.0290813E1,1.1040813E1,1.2351964E1,2.0041235E1,1.4684671E1,1.5763912E1,1.0421245E1,1.9881256E1,2.8012089E1,9.7199255E-1,2.4057556E1,2.837885E1,3.8368233E1,1.5533258E1,3.690849E1,3.234171E1,-1.125947E1,2.332096E1,-1.3099363E1,3.0055874E1,-2.0800822E0,3.592316E1,9.015757E0,-5.4849863E0,5.7365803E1],"split_indices":[58,59,54,59,58,56,14,59,59,59,54,34,5,7,57,59,59,59,59,59,59,57,53,5,7,30,51,0,31,6,35,50,59,59,59,59,59,59,59,59,59,59,59,58,43,31,0,0,32,34,48,59,0,15,56,0,0,0,46,32,59,0,0,0,0,0,0,0,0,0,0,0,0,0,0,0,0,0,0,0,0,0,0,0,0,0,0,0,0,0,0,0,0,0,0,0,0,0,0,0,0,0,0,0,0,0,0,0,0,0,0,0,0],"split_type":[0,0,0,0,0,0,0,0,0,0,0,0,0,0,0,0,0,0,0,0,0,0,0,0,0,0,0,0,0,0,0,0,0,0,0,0,0,0,0,0,0,0,0,0,0,0,0,0,0,0,0,0,0,0,0,0,0,0,0,0,0,0,0,0,0,0,0,0,0,0,0,0,0,0,0,0,0,0,0,0,0,0,0,0,0,0,0,0,0,0,0,0,0,0,0,0,0,0,0,0,0,0,0,0,0,0,0,0,0,0,0,0,0],"sum_hessian":[4.95184E5,4.89368E5,5.816E3,4.11961E5,7.7407E4,3.884E3,1.932E3,2.28101E5,1.8386E5,6.1948E4,1.5459E4,1.943E3,1.941E3,3E2,1.632E3,9.4796E4,1.33305E5,1.08378E5,7.5482E4,3.8702E4,2.3246E4,1.1681E4,3.778E3,3.3E2,1.613E3,1.776E3,1.65E2,2.71E2,2.9E1,2.6E1,1.606E3,2.7106E4,6.769E4,7.1629E4,6.1676E4,4.0614E4,6.7764E4,4.8358E4,2.7124E4,2.321E4,1.5492E4,1.548E4,7.766E3,7.773E3,3.908E3,1.912E3,1.866E3,2.81E2,4.9E1,1.316E3,2.97E2,1.708E3,6.8E1,1.49E2,1.6E1,1.8E1,1.1E1,1.2E1,1.4E1,3.8E1,1.568E3,1.925E3,2.5181E4,3.2859E4,3.4831E4,3.6796E4,3.4833E4,3.0962E4,3.0714E4,2.7084E4,1.353E4,4.0644E4,2.712E4,2.9012E4,1.9346E4,1.1644E4,1.548E4,1.1583E4,1.1627E4,7.753E3,7.739E3,7.748E3,7.732E3,7.763E3,3E0,3.879E3,3.894E3,2.194E3,1.714E3,5.41E2,1.371E3,8.7E1,1.779E3,3.3E1,1.6E1,1.246E3,7E1,3E0,2.94E2,1.661E3,4.7E1,2E0,1.47E2,1.1E1,5E0,3E0,8E0,6E0,8E0,2.9E1,9E0,6E0,1.562E3],"tree_param":{"num_deleted":"0","num_feature":"60","num_nodes":"113","size_leaf_vector":"1"}},{"base_weights":[6.7162486E-3,-9.445993E-1,7.999666E1,-2.977431E0,1.0911211E1,5.8605076E1,1.2434221E2,-5.0459337E0,3.4146687E-1,8.115894E0,2.2973932E1,4.7517757E1,6.9815796E1,8.57517E1,1.3110042E2,-6.6725383E0,-3.7884364E0,-8.649454E-1,2.2594645E0,6.40748E0,1.2088768E1,1.9730625E1,3.1404552E1,4.5740326E1,5.7873272E1,-2.179131E1,7.006237E1,2.6536037E1,3.795619E1,6.526338E1,1.3343242E2,-8.122985E0,-6.119742E0,-4.4646983E0,-2.9724991E0,-1.6862391E0,-3.3799124E-1,1.5195937E0,3.2109985E0,5.3652973E0,8.124828E0,1.098823E1,1.4279301E1,1.7830261E1,2.2484077E1,2.8111189E1,3.5153374E1,4.5093822E1,6.350495E1,-2.9727793E0,5.862683E1,-1.7127833E0,-8.5215025E0,6.859372E1,8.5499146E1,2.737622E1,8.144231E0,7.423293E1,1.0457692E0,-3.2669277E1,1.3431364E2,-2.977233E0,-2.312401E0,-1.9492233E0,-1.6690977E0,-1.480216E0,-1.2290293E0,-1.008796E0,-7.8765595E-1,-6.60054E-1,-4.5569915E-1,-2.4528727E-1,1.7061852E-2,3.526267E-1,5.846316E-1,8.350701E-1,1.0598243E0,1.4301224E0,1.8154625E0,2.24486E0,2.6328015E0,3.2906082E0,1.9527512E1,4.3134966E0,-5.050451E0,5.0938897E0,5.834574E0,6.2751727E0,7.200233E0,1.2077005E1,8.323945E0,1.0258896E1,1.3048933E1,1.3398006E1,2.0792208E1,2.0285086E1,1.02183895E1,1.5204328E0,1.7812962E1,2.017838E1,2.4985018E1,2.7435238E1,1.2796979E1,2.2528011E1,-1.0415104E1,1.1672249E1,2.4627483E1,1.9579054E1,-9.37122E0,1.9158747E1,-2.08119E1,-1.0415456E1,4.0531666E1],"categories":[],"categories_nodes":[],"categories_segments":[],"categories_sizes":[],"default_left":[0,0,0,0,0,0,0,0,0,0,0,0,0,0,0,0,0,0,0,0,0,0,0,0,0,0,0,0,0,0,0,0,0,0,0,0,0,0,0,0,0,0,0,0,0,0,0,0,0,0,0,0,0,0,0,0,0,0,0,0,0,0,0,0,0,0,0,0,0,0,0,0,0,0,0,0,0,0,0,0,0,0,0,0,0,0,0,0,0,0,0,0,0,0,0,0,0,0,0,0,0,0,0,0,0,0,0,0,0,0,0,0,0],"id":6,"left_children":[1,3,5,7,9,11,13,15,17,19,21,23,25,27,29,31,33,35,37,39,41,43,45,47,49,51,53,-1,55,57,59,61,63,65,67,69,71,73,75,77,79,81,83,85,87,89,91,93,95,-1,97,-1,-1,99,101,-1,103,105,107,109,111,-1,-1,-1,-1,-1,-1,-1,-1,-1,-1,-1,-1,-1,-1,-1,-1,-1,-1,-1,-1,-1,-1,-1,-1,-1,-1,-1,-1,-1,-1,-1,-1,-1,-1,-1,-1,-1,-1,-1,-1,-1,-1,-1,-1,-1,-1,-1,-1,-1,-1,-1,-1],"loss_changes":[3.7681504E7,1.1794178E7,5.513692E6,2.8678492E6,2.415014E6,4.84919E5,4.82458E5,5.263675E5,3.7113466E5,3.94625E5,3.67828E5,3.376E4,4.5596E4,3.3445125E4,2.38324E5,8.99165E4,8.007525E4,4.261222E4,4.3596E4,7.27435E4,4.199775E4,5.053275E4,4.52115E4,1.658025E4,1.518925E4,4.7599805E2,3.8253E4,0E0,2.6268344E4,3.2754547E4,2.31704E5,2.3064125E4,1.702675E4,1.368525E4,8.8964375E3,3.3043672E3,1.135965E4,5.1444062E3,3.71575E3,1.03624375E4,6.354E3,1.15925E4,1.8247E4,7.6045E3,8.934875E3,7.728625E3,1.2454E4,1.409975E4,4.598E3,0E0,1.1062375E4,0E0,0E0,2.9279E4,3.817125E4,0E0,3.7041297E4,1.0686594E4,1.8623875E4,3.6318004E4,2.115E5,0E0,0E0,0E0,0E0,0E0,0E0,0E0,0E0,0E0,0E0,0E0,0E0,0E0,0E0,0E0,0E0,0E0,0E0,0E0,0E0,0E0,0E0,0E0,0E0,0E0,0E0,0E0,0E0,0E0,0E0,0E0,0E0,0E0,0E0,0E0,0E0,0E0,0E0,0E0,0E0,0E0,0E0,0E0,0E0,0E0,0E0,0E0,0E0,0E0,0E0,0E0,0E0],"parents":[2147483647,0,0,1,1,2,2,3,3,4,4,5,5,6,6,7,7,8,8,9,9,10,10,11,11,12,12,13,13,14,14,15,15,16,16,17,17,18,18,19,19,20,20,21,21,22,22,23,23,24,24,25,25,26,26,28,28,29,29,30,30,31,31,32,32,33,33,34,34,35,35,36,36,37,37,38,38,39,39,40,40,41,41,42,42,43,43,44,44,45,45,46,46,47,47,48,48,50,50,53,53,54,54,56,56,57,57,58,58,59,59,60,60],"right_children":[2,4,6,8,10,12,14,16,18,20,22,24,26,28,30,32,34,36,38,40,42,44,46,48,50,52,54,-1,56,58,60,62,64,66,68,70,72,74,76,78,80,82,84,86,88,90,92,94,96,-1,98,-1,-1,100,102,-1,104,106,108,110,112,-1,-1,-1,-1,-1,-1,-1,-1,-1,-1,-1,-1,-1,-1,-1,-1,-1,-1,-1,-1,-1,-1,-1,-1,-1,-1,-1,-1,-1,-1,-1,-1,-1,-1,-1,-1,-1,-1,-1,-1,-1,-1,-1,-1,-1,-1,-1,-1,-1,-1,-1,-1],"split_conditions":[2.0230438E-1,5.6989074E-2,3.7671497E-1,3.0751046E-2,1.050791E-1,2.727397E-1,3.762705E-1,1.7842054E-2,4.245852E-2,7.966162E-2,1.4564742E-1,2.723923E-1,2.127566E-2,3.7774065E-1,3.7836096E-1,1.0051724E-2,2.446994E-2,3.4858674E-2,4.972624E-2,6.8183705E-2,9.236547E-2,1.2289673E-1,1.6730894E-1,2.7239293E-1,2.035987E-1,2.127566E-2,3.762705E-1,2.6536037E1,3.782242E-1,3.78444E-1,3.7844887E-1,5.3286836E-3,1.5150849E-2,2.0816544E-2,2.7263714E-2,3.1723008E-2,3.7857585E-2,4.6165645E-2,5.2661654E-2,6.179026E-2,7.367357E-2,1.3160041E-1,1.1605883E-1,1.1591718E-1,1.3180555E-1,8.320268E-2,2.0240694E-1,2.724955E-1,2.7108395E-1,-2.9727793E0,2.0300283E-1,-1.7127833E0,-8.5215025E0,3.7779927E-1,3.7782857E-1,2.737622E1,3.7771136E-1,2.7214628E-1,3.777895E-1,3.779067E-1,3.7836096E-1,-2.977233E0,-2.312401E0,-1.9492233E0,-1.6690977E0,-1.480216E0,-1.2290293E0,-1.008796E0,-7.8765595E-1,-6.60054E-1,-4.5569915E-1,-2.4528727E-1,1.7061852E-2,3.526267E-1,5.846316E-1,8.350701E-1,1.0598243E0,1.4301224E0,1.8154625E0,2.24486E0,2.6328015E0,3.2906082E0,1.9527512E1,4.3134966E0,-5.050451E0,5.0938897E0,5.834574E0,6.2751727E0,7.200233E0,1.2077005E1,8.323945E0,1.0258896E1,1.3048933E1,1.3398006E1,2.0792208E1,2.0285086E1,1.02183895E1,1.5204328E0,1.7812962E1,2.017838E1,2.4985018E1,2.7435238E1,1.2796979E1,2.2528011E1,-1.0415104E1,1.1672249E1,2.4627483E1,1.9579054E1,-9.37122E0,1.9158747E1,-2.08119E1,-1.0415456E1,4.0531666E1],"split_indices":[57,59,38,59,57,51,0,59,59,59,51,1,59,1,58,59,59,59,59,57,58,56,41,36,38,58,0,0,23,57,52,59,59,59,59,59,59,59,59,59,57,59,51,59,56,4,30,5,59,0,53,0,0,59,34,0,42,56,8,12,43,0,0,0,0,0,0,0,0,0,0,0,0,0,0,0,0,0,0,0,0,0,0,0,0,0,0,0,0,0,0,0,0,0,0,0,0,0,0,0,0,0,0,0,0,0,0,0,0,0,0,0,0],"split_type":[0,0,0,0,0,0,0,0,0,0,0,0,0,0,0,0,0,0,0,0,0,0,0,0,0,0,0,0,0,0,0,0,0,0,0,0,0,0,0,0,0,0,0,0,0,0,0,0,0,0,0,0,0,0,0,0,0,0,0,0,0,0,0,0,0,0,0,0,0,0,0,0,0,0,0,0,0,0,0,0,0,0,0,0,0,0,0,0,0,0,0,0,0,0,0,0,0,0,0,0,0,0,0,0,0,0,0,0,0,0,0,0,0],"sum_hessian":[4.95184E5,4.89365E5,5.819E3,4.17739E5,7.1626E4,3.927E3,1.892E3,2.57347E5,1.60392E5,5.8152E4,1.3474E4,1.977E3,1.95E3,2.84E2,1.608E3,1.12204E5,1.45143E5,9.8461E4,6.1931E4,4.0667E4,1.7485E4,9.733E3,3.741E3,1.692E3,2.85E2,5E0,1.945E3,2.68E2,1.6E1,5.6E1,1.552E3,3.0959E4,8.1245E4,7.9362E4,6.5781E4,3.8482E4,5.9979E4,3.4842E4,2.7089E4,2.5311E4,1.5356E4,1.1642E4,5.843E3,5.763E3,3.97E3,1.996E3,1.745E3,1.636E3,5.6E1,3E0,2.82E2,2E0,3E0,1.781E3,1.64E2,5E0,1.1E1,4.9E1,7E0,8E0,1.544E3,5.793E3,2.5166E4,4.8378E4,3.2867E4,3.4869E4,4.4493E4,3.096E4,3.4821E4,9.445E3,2.9037E4,2.7082E4,3.2897E4,1.9338E4,1.5504E4,1.1638E4,1.5451E4,1.3527E4,1.1784E4,7.739E3,7.617E3,1.1639E4,3E0,5.825E3,1.8E1,3.785E3,1.978E3,1.96E3,2.01E3,5.5E1,1.941E3,1.57E3,1.75E2,1.61E3,2.6E1,4.8E1,8E0,4E0,2.78E2,1.638E3,1.43E2,1.43E2,2.1E1,4E0,7E0,1E1,3.9E1,2E0,5E0,2E0,6E0,7E0,1.537E3],"tree_param":{"num_deleted":"0","num_feature":"60","num_nodes":"113","size_leaf_vector":"1"}},{"base_weights":[5.4767574E-3,-6.611712E-1,5.6127876E1,-2.1517832E0,7.2692094E0,4.1625217E1,8.799964E1,-3.6962159E0,-7.960447E-2,5.084684E0,1.48211975E1,3.312455E1,4.915858E1,5.3530643E1,9.234989E1,-4.829969E0,-2.9089324E0,-9.040736E-1,1.2985269E0,3.8884327E0,7.2521257E0,1.2818886E1,2.1813026E1,-1.1732047E1,3.349142E1,4.2199444E1,5.1670944E1,5.8701073E1,7.6188273E0,1.5937338E1,9.3397156E1,-6.0868587E0,-4.516106E0,-3.3144448E0,-2.3406034E0,-1.4897814E0,-4.4460264E-1,8.034524E-1,2.0052722E0,3.2672122E0,4.824862E0,6.4201393E0,8.23604E0,1.1189566E1,1.4971553E1,1.934284E1,2.4220219E1,-5.139615E0,-7.562243E0,2.8147266E1,3.5130447E1,2.161462E1,3.955046E1,2.834859E1,5.2396908E1,3.6717724E1,6.2887867E1,1.9240517E1,-1.7583199E1,1.8330145E1,-1.22208305E2,1.3151398E1,9.456658E1,-2.450295E0,-1.7582482E0,-1.4430201E0,-1.2664467E0,-1.0669273E0,-8.975505E-1,-7.6966554E-1,-6.2507087E-1,-4.9846813E-1,-3.570334E-1,-2.0794733E-1,-3.7965998E-2,1.3986157E-1,3.2378855E-1,5.0874615E-1,6.713748E-1,8.1213063E-1,1.0638251E0,1.3508955E0,1.6107398E0,1.9297488E0,-2.0492817E1,2.4632626E0,2.03104E1,3.2393954E0,3.7085843E0,-1.0362747E1,4.503472E0,5.8945293E0,2.195074E0,1.3178928E1,7.1102443E0,-1.7400628E0,-3.6732864E-1,8.879889E0,5.5149097E0,5.4736314E0,1.0685347E1,1.2918874E1,8.580239E0,2.4909147E1,6.893212E0,6.042233E0,1.5952422E1,1.2317409E1,-5.677362E0,1.9063566E1,2.585858E0,1.0413776E1,-7.015127E0,8.114145E0,-4.724065E1,1.9096926E1,-2.3428972E1,8.372329E0,2.8728365E1],"categories":[],"categories_nodes":[],"categories_segments":[],"categories_sizes":[],"default_left":[0,0,0,0,0,0,0,0,0,0,0,0,0,0,0,0,0,0,0,0,0,0,0,0,0,0,0,0,0,0,0,0,0,0,0,0,0,0,0,0,0,0,0,0,0,0,0,0,0,0,0,0,0,0,0,0,0,0,0,0,0,0,0,0,0,0,0,0,0,0,0,0,0,0,0,0,0,0,0,0,0,0,0,0,0,0,0,0,0,0,0,0,0,0,0,0,0,0,0,0,0,0,0,0,0,0,0,0,0,0,0,0,0,0,0,0,0,0,0],"id":7,"left_children":[1,3,5,7,9,11,13,15,17,19,21,23,25,27,29,31,33,35,37,39,41,43,45,47,49,51,53,55,57,59,61,63,65,67,69,71,73,75,77,79,81,83,85,87,89,91,93,95,-1,97,99,-1,101,103,105,107,109,-1,111,-1,113,115,117,-1,-1,-1,-1,-1,-1,-1,-1,-1,-1,-1,-1,-1,-1,-1,-1,-1,-1,-1,-1,-1,-1,-1,-1,-1,-1,-1,-1,-1,-1,-1,-1,-1,-1,-1,-1,-1,-1,-1,-1,-1,-1,-1,-1,-1,-1,-1,-1,-1,-1,-1,-1,-1,-1,-1,-1],"loss_changes":[1.8526832E7,5.784953E6,2.683252E6,1.3183609E6,1.277327E6,2.543335E5,2.67513E5,2.1066075E5,1.9988278E5,1.55693E5,2.4292525E5,3.134775E4,3.48325E4,4.8453812E4,1.2751E5,3.8131E4,3.209625E4,2.9620625E4,2.303839E4,2.2498312E4,1.7430875E4,4.72065E4,2.2519625E4,1.2918171E3,1.535575E4,4.198325E4,2.477525E4,1.471825E4,3.2462816E4,1.509661E5,1.47965E5,9.0411875E3,6.683375E3,6.3355625E3,3.3487188E3,2.4888516E3,4.876123E3,3.6019746E3,1.9489922E3,3.6251406E3,2.6795E3,1.1129531E4,1.4082875E4,3.3978125E3,1.2043375E4,6.8865625E3,1.8962375E4,2.3934235E1,0E0,5.738125E3,1.1068875E4,0E0,1.8883125E4,1.2483898E4,3.6639E4,8.505141E3,4.946E3,0E0,5.665226E3,0E0,3.5836023E4,1.1557488E5,1.22111E5,0E0,0E0,0E0,0E0,0E0,0E0,0E0,0E0,0E0,0E0,0E0,0E0,0E0,0E0,0E0,0E0,0E0,0E0,0E0,0E0,0E0,0E0,0E0,0E0,0E0,0E0,0E0,0E0,0E0,0E0,0E0,0E0,0E0,0E0,0E0,0E0,0E0,0E0,0E0,0E0,0E0,0E0,0E0,0E0,0E0,0E0,0E0,0E0,0E0,0E0,0E0,0E0,0E0,0E0,0E0,0E0],"parents":[2147483647,0,0,1,1,2,2,3,3,4,4,5,5,6,6,7,7,8,8,9,9,10,10,11,11,12,12,13,13,14,14,15,15,16,16,17,17,18,18,19,19,20,20,21,21,22,22,23,23,24,24,25,25,26,26,27,27,28,28,29,29,30,30,31,31,32,32,33,33,34,34,35,35,36,36,37,37,38,38,39,39,40,40,41,41,42,42,43,43,44,44,45,45,46,46,47,47,49,49,50,50,52,52,53,53,54,54,55,55,56,56,58,58,60,60,61,61,62,62],"right_children":[2,4,6,8,10,12,14,16,18,20,22,24,26,28,30,32,34,36,38,40,42,44,46,48,50,52,54,56,58,60,62,64,66,68,70,72,74,76,78,80,82,84,86,88,90,92,94,96,-1,98,100,-1,102,104,106,108,110,-1,112,-1,114,116,118,-1,-1,-1,-1,-1,-1,-1,-1,-1,-1,-1,-1,-1,-1,-1,-1,-1,-1,-1,-1,-1,-1,-1,-1,-1,-1,-1,-1,-1,-1,-1,-1,-1,-1,-1,-1,-1,-1,-1,-1,-1,-1,-1,-1,-1,-1,-1,-1,-1,-1,-1,-1,-1,-1,-1,-1],"split_conditions":[2.0250463E-1,5.546031E-2,3.7757948E-1,2.8616643E-2,9.586746E-2,2.7108395E-1,3.7779927E-1,1.6547736E-2,4.0934645E-2,7.367357E-2,1.4558393E-1,2.9998876E-2,2.724955E-1,3.7782857E-1,3.7771136E-1,8.078499E-3,2.3263538E-2,3.362297E-2,4.83147E-2,6.3646264E-2,8.3163604E-2,1.1593184E-1,1.6668376E-1,2.024509E-1,2.0283186E-1,2.5803331E-2,2.7297413E-1,2.7181536E-1,3.779067E-1,3.7635842E-1,3.7795556E-1,3.7120068E-3,1.3158088E-2,2.0508839E-2,2.5993817E-2,3.1723008E-2,3.741312E-2,4.3874945E-2,5.1132895E-2,5.754099E-2,6.946337E-2,1.00450374E-1,1.6692798E-1,1.1002193E-1,1.1001705E-1,1.6694897E-1,7.365403E-2,2.6360134E-2,-7.562243E0,2.0313957E-1,2.0341797E-1,2.161462E1,2.7277878E-1,2.7215847E-1,2.7215847E-1,3.779067E-1,3.7836096E-1,1.9240517E1,3.7650007E-1,1.8330145E1,3.762705E-1,3.7774065E-1,3.7774065E-1,-2.450295E0,-1.7582482E0,-1.4430201E0,-1.2664467E0,-1.0669273E0,-8.975505E-1,-7.6966554E-1,-6.2507087E-1,-4.9846813E-1,-3.570334E-1,-2.0794733E-1,-3.7965998E-2,1.3986157E-1,3.2378855E-1,5.0874615E-1,6.713748E-1,8.1213063E-1,1.0638251E0,1.3508955E0,1.6107398E0,1.9297488E0,-2.0492817E1,2.4632626E0,2.03104E1,3.2393954E0,3.7085843E0,-1.0362747E1,4.503472E0,5.8945293E0,2.195074E0,1.3178928E1,7.1102443E0,-1.7400628E0,-3.6732864E-1,8.879889E0,5.5149097E0,5.4736314E0,1.0685347E1,1.2918874E1,8.580239E0,2.4909147E1,6.893212E0,6.042233E0,1.5952422E1,1.2317409E1,-5.677362E0,1.9063566E1,2.585858E0,1.0413776E1,-7.015127E0,8.114145E0,-4.724065E1,1.9096926E1,-2.3428972E1,8.372329E0,2.8728365E1],"split_indices":[55,59,9,59,57,59,59,59,59,59,59,59,2,55,11,59,59,59,59,58,59,58,57,58,14,1,53,55,48,29,6,22,59,59,59,59,59,59,59,59,58,46,59,58,57,56,0,58,0,0,39,0,16,0,0,48,58,0,19,0,0,2,2,0,0,0,0,0,0,0,0,0,0,0,0,0,0,0,0,0,0,0,0,0,0,0,0,0,0,0,0,0,0,0,0,0,0,0,0,0,0,0,0,0,0,0,0,0,0,0,0,0,0,0,0,0,0,0,0],"split_type":[0,0,0,0,0,0,0,0,0,0,0,0,0,0,0,0,0,0,0,0,0,0,0,0,0,0,0,0,0,0,0,0,0,0,0,0,0,0,0,0,0,0,0,0,0,0,0,0,0,0,0,0,0,0,0,0,0,0,0,0,0,0,0,0,0,0,0,0,0,0,0,0,0,0,0,0,0,0,0,0,0,0,0,0,0,0,0,0,0,0,0,0,0,0,0,0,0,0,0,0,0,0,0,0,0,0,0,0,0,0,0,0,0,0,0,0,0,0,0],"sum_hessian":[4.95184E5,4.89372E5,5.812E3,4.11943E5,7.7429E4,3.996E3,1.816E3,2.36027E5,1.75916E5,6.0058E4,1.7371E4,1.88E3,2.116E3,2.05E2,1.611E3,9.6727E4,1.393E5,1.10068E5,6.5848E4,3.8701E4,2.1357E4,1.3506E4,3.865E3,1.5E1,1.865E3,5.66E2,1.55E3,1.84E2,2.1E1,2.2E1,1.589E3,1.9324E4,7.7403E4,8.1292E4,5.8008E4,4.8386E4,6.1682E4,3.8724E4,2.7124E4,2.3269E4,1.5432E4,1.1576E4,9.781E3,7.691E3,5.815E3,1.912E3,1.953E3,1.1E1,4E0,4.42E2,1.423E3,4.4E1,5.22E2,4.8E1,1.502E3,3.1E1,1.53E2,6E0,1.5E1,1.7E1,5E0,2.3E1,1.566E3,1.89E3,1.7434E4,3.8737E4,3.8666E4,4.6445E4,3.4847E4,3.093E4,2.7078E4,3.0753E4,1.7633E4,3.4623E4,2.7059E4,1.7424E4,2.13E4,1.1644E4,1.548E4,7.738E3,1.5531E4,9.703E3,5.729E3,1.1575E4,1E0,9.778E3,3E0,5.773E3,1.918E3,4E0,5.811E3,1.864E3,4.8E1,4.8E1,1.905E3,9E0,2E0,3.83E2,5.9E1,4.1E1,1.382E3,3.93E2,1.29E2,3E0,4.5E1,3.6E1,1.466E3,2.9E1,2E0,1.51E2,2E0,1E0,1.4E1,1E0,4E0,1.5E1,8E0,2.8E1,1.538E3],"tree_param":{"num_deleted":"0","num_feature":"60","num_nodes":"119","size_leaf_vector":"1"}},{"base_weights":[4.2565768E-3,-4.6185893E-1,3.941614E1,-1.5374097E0,4.9321203E0,2.8608507E1,6.0938385E1,-2.6397095E0,-1.6371478E-1,3.4431913E0,1.0375709E1,2.3366264E1,3.365448E1,4.079445E1,6.452468E1,-3.4367747E0,-2.123166E0,-7.716815E-1,7.299934E-1,2.4543536E0,4.7860775E0,8.427075E0,1.422936E1,-5.569585E0,2.3756294E1,2.6059813E1,3.4919064E1,4.3475616E1,-2.8810458E0,8.987134E0,6.530908E1,-4.260974E0,-3.2082002E0,-2.4938478E0,-1.8362828E0,-1.1255051E0,-4.1948274E-1,2.6744828E-1,1.1472412E0,2.0041518E0,2.954853E0,4.114414E0,5.6943755E0,7.526371E0,9.604303E0,1.2834717E1,1.696283E1,-2.2282178E0,-5.7473044E0,2.0003073E1,2.506075E1,1.506864E1,2.4808868E1,5.3938417E0,3.5253754E1,6.451913E1,3.9977158E1,4.508791E1,-1.0633361E2,3.921347E1,-5.6367226E1,-1.7585173E1,6.583585E1,-1.7423403E0,-1.2273536E0,-1.0715084E0,-9.3134207E-1,-7.836522E-1,-6.734755E-1,-6.072804E-1,-4.945421E-1,-3.783107E-1,-2.8288093E-1,-1.948592E-1,-9.3106E-2,3.7437458E-2,1.4732085E-1,2.6572168E-1,4.2246342E-1,6.020719E-1,-4.9354897E0,8.243249E-1,9.6537125E-1,1.2410812E0,-1.4898282E0,1.5960064E0,1.9359043E0,2.2709317E0,-5.058878E0,2.7313406E0,3.1670833E0,3.5020592E0,4.2416615E0,1.0199288E1,4.92375E0,-9.959735E-1,1.0543145E0,6.4286447E0,2.4521754E0,1.116902E0,7.6304507E0,7.8436537E0,3.3469765E0,1.1037506E1,-5.5812087E0,-3.0358133E0,1.0635606E1,2.1330446E1,9.284279E0,1.1359039E1,1.5182311E1,7.670054E0,1.5276954E1,-2.7559662E0,-3.717771E1,7.916097E0,1.4304872E1,6.6024175E0,-2.58481E1,1.2627953E1,-5.7227547E1,4.197943E0,1.9963984E1],"categories":[],"categories_nodes":[],"categories_segments":[],"categories_sizes":[],"default_left":[0,0,0,0,0,0,0,0,0,0,0,0,0,0,0,0,0,0,0,0,0,0,0,0,0,0,0,0,0,0,0,0,0,0,0,0,0,0,0,0,0,0,0,0,0,0,0,0,0,0,0,0,0,0,0,0,0,0,0,0,0,0,0,0,0,0,0,0,0,0,0,0,0,0,0,0,0,0,0,0,0,0,0,0,0,0,0,0,0,0,0,0,0,0,0,0,0,0,0,0,0,0,0,0,0,0,0,0,0,0,0,0,0,0,0,0,0,0,0,0,0,0,0],"id":8,"left_children":[1,3,5,7,9,11,13,15,17,19,21,23,25,27,29,31,33,35,37,39,41,43,45,47,49,51,53,55,57,59,61,63,65,67,69,71,73,75,77,79,81,83,85,87,89,91,93,95,-1,97,99,-1,101,103,105,107,109,111,113,115,117,119,121,-1,-1,-1,-1,-1,-1,-1,-1,-1,-1,-1,-1,-1,-1,-1,-1,-1,-1,-1,-1,-1,-1,-1,-1,-1,-1,-1,-1,-1,-1,-1,-1,-1,-1,-1,-1,-1,-1,-1,-1,-1,-1,-1,-1,-1,-1,-1,-1,-1,-1,-1,-1,-1,-1,-1,-1,-1,-1,-1,-1],"loss_changes":[9.09681E6,2.8392492E6,1.344572E6,6.178589E5,6.5941275E5,1.01187E5,1.370835E5,9.3197875E4,9.870296E4,8.482625E4,1.310985E5,2.1507688E4,1.7933E4,3.4670156E4,7.0858E4,1.6756375E4,1.46031875E4,1.3472043E4,1.4193773E4,8.285391E3,1.6505188E4,1.2236125E4,2.2148625E4,1.1377856E3,8.649125E3,7.3403594E3,1.640125E4,1.7887E4,9.411956E4,4.9620508E4,7.1766E4,5.0515625E3,2.6166875E3,1.75925E3,2.7306562E3,1.3332578E3,1.3600371E3,1.1126799E3,2.6374883E3,1.01797656E3,9.4034375E2,3.2067188E3,3.2359062E3,7.0937812E3,2.2980312E3,5.7243125E3,1.7994688E4,1.4958896E2,0E0,8.03825E3,1.09446875E4,0E0,4.6718125E3,1.5754103E4,1.5292E4,6.1968125E3,3.4990625E3,1.7889258E2,9.11568E3,5.8855273E2,2.0576562E4,1.217113E5,5.8283E4,0E0,0E0,0E0,0E0,0E0,0E0,0E0,0E0,0E0,0E0,0E0,0E0,0E0,0E0,0E0,0E0,0E0,0E0,0E0,0E0,0E0,0E0,0E0,0E0,0E0,0E0,0E0,0E0,0E0,0E0,0E0,0E0,0E0,0E0,0E0,0E0,0E0,0E0,0E0,0E0,0E0,0E0,0E0,0E0,0E0,0E0,0E0,0E0,0E0,0E0,0E0,0E0,0E0,0E0,0E0,0E0,0E0,0E0,0E0,0E0],"parents":[2147483647,0,0,1,1,2,2,3,3,4,4,5,5,6,6,7,7,8,8,9,9,10,10,11,11,12,12,13,13,14,14,15,15,16,16,17,17,18,18,19,19,20,20,21,21,22,22,23,23,24,24,25,25,26,26,27,27,28,28,29,29,30,30,31,31,32,32,33,33,34,34,35,35,36,36,37,37,38,38,39,39,40,40,41,41,42,42,43,43,44,44,45,45,46,46,47,47,49,49,50,50,52,52,53,53,54,54,55,55,56,56,57,57,58,58,59,59,60,60,61,61,62,62],"right_children":[2,4,6,8,10,12,14,16,18,20,22,24,26,28,30,32,34,36,38,40,42,44,46,48,50,52,54,56,58,60,62,64,66,68,70,72,74,76,78,80,82,84,86,88,90,92,94,96,-1,98,100,-1,102,104,106,108,110,112,114,116,118,120,122,-1,-1,-1,-1,-1,-1,-1,-1,-1,-1,-1,-1,-1,-1,-1,-1,-1,-1,-1,-1,-1,-1,-1,-1,-1,-1,-1,-1,-1,-1,-1,-1,-1,-1,-1,-1,-1,-1,-1,-1,-1,-1,-1,-1,-1,-1,-1,-1,-1,-1,-1,-1,-1,-1,-1,-1,-1,-1,-1,-1],"split_conditions":[2.0335937E-1,5.436625E-2,3.7771136E-1,2.7634915E-2,9.586746E-2,2.7108395E-1,3.779067E-1,1.593721E-2,3.928378E-2,6.9458485E-2,1.3160041E-1,3.3818338E-2,2.7258343E-1,3.768615E-1,3.77853E-1,8.078499E-3,2.0967955E-2,3.315408E-2,4.499343E-2,6.0310345E-2,8.132714E-2,1.0995355E-1,1.6692798E-1,2.024509E-1,2.0342775E-1,2.096307E-2,2.7284715E-1,3.7836096E-1,3.782242E-1,3.777553E-1,3.768322E-1,3.7022384E-3,1.05938725E-2,1.9370815E-2,2.4118276E-2,3.0751046E-2,3.50687E-2,4.245852E-2,4.9247585E-2,1.4560835E-1,6.464753E-2,8.979149E-2,8.9771956E-2,1.3180555E-1,1.22803934E-1,1.4523715E-1,8.5268706E-2,3.7782857E-1,-5.7473044E0,2.0313957E-1,2.0245579E-1,1.506864E1,2.7192894E-1,2.723923E-1,2.724955E-1,3.7742805E-1,3.768615E-1,3.765587E-1,3.762705E-1,3.7782857E-1,3.768615E-1,3.7650007E-1,3.7832677E-1,-1.7423403E0,-1.2273536E0,-1.0715084E0,-9.3134207E-1,-7.836522E-1,-6.734755E-1,-6.072804E-1,-4.945421E-1,-3.783107E-1,-2.8288093E-1,-1.948592E-1,-9.3106E-2,3.7437458E-2,1.4732085E-1,2.6572168E-1,4.2246342E-1,6.020719E-1,-4.9354897E0,8.243249E-1,9.6537125E-1,1.2410812E0,-1.4898282E0,1.5960064E0,1.9359043E0,2.2709317E0,-5.058878E0,2.7313406E0,3.1670833E0,3.5020592E0,4.2416615E0,1.0199288E1,4.92375E0,-9.959735E-1,1.0543145E0,6.4286447E0,2.4521754E0,1.116902E0,7.6304507E0,7.8436537E0,3.3469765E0,1.1037506E1,-5.5812087E0,-3.0358133E0,1.0635606E1,2.1330446E1,9.284279E0,1.1359039E1,1.5182311E1,7.670054E0,1.5276954E1,-2.7559662E0,-3.717771E1,7.916097E0,1.4304872E1,6.6024175E0,-2.58481E1,1.2627953E1,-5.7227547E1,4.197943E0,1.9963984E1],"split_indices":[54,59,56,59,59,59,17,59,59,59,59,59,39,15,53,59,59,59,59,59,57,31,59,58,5,29,57,58,23,44,49,58,59,59,59,59,59,59,59,55,58,49,57,53,27,47,20,55,0,0,50,0,40,48,54,21,22,50,0,55,15,45,32,0,0,0,0,0,0,0,0,0,0,0,0,0,0,0,0,0,0,0,0,0,0,0,0,0,0,0,0,0,0,0,0,0,0,0,0,0,0,0,0,0,0,0,0,0,0,0,0,0,0,0,0,0,0,0,0,0,0,0,0],"split_type":[0,0,0,0,0,0,0,0,0,0,0,0,0,0,0,0,0,0,0,0,0,0,0,0,0,0,0,0,0,0,0,0,0,0,0,0,0,0,0,0,0,0,0,0,0,0,0,0,0,0,0,0,0,0,0,0,0,0,0,0,0,0,0,0,0,0,0,0,0,0,0,0,0,0,0,0,0,0,0,0,0,0,0,0,0,0,0,0,0,0,0,0,0,0,0,0,0,0,0,0,0,0,0,0,0,0,0,0,0,0,0,0,0,0,0,0,0,0,0,0,0,0,0],"sum_hessian":[4.95184E5,4.89397E5,5.787E3,4.08036E5,8.1361E4,3.854E3,1.933E3,2.2638E5,1.81656E5,6.3888E4,1.7473E4,1.893E3,1.961E3,2.94E2,1.639E3,8.9016E4,1.37364E5,1.08111E5,7.3545E4,3.6796E4,2.7092E4,1.1607E4,5.866E3,2.5E1,1.868E3,2.83E2,1.678E3,2.77E2,1.7E1,2.3E1,1.616E3,1.9323E4,6.9693E4,5.9926E4,7.7438E4,5.393E4,5.4181E4,3.488E4,3.8665E4,1.9374E4,1.7422E4,1.5578E4,1.1514E4,6.58E3,5.027E3,3.888E3,1.978E3,2.1E1,4E0,4.86E2,1.382E3,1.2E1,2.71E2,1.9E1,1.659E3,3.7E1,2.4E2,1.2E1,5E0,1.6E1,7E0,1E1,1.606E3,1.908E3,1.7415E4,1.5465E4,5.4228E4,4.0612E4,1.9314E4,3.8696E4,3.8742E4,3.0949E4,2.2981E4,1.7431E4,3.675E4,2.1296E4,1.3584E4,1.9315E4,1.935E4,1.9372E4,2E0,9.754E3,7.668E3,1.554E4,3.8E1,7.715E3,3.799E3,6.569E3,1.1E1,3.304E3,1.723E3,2.062E3,1.826E3,6E1,1.918E3,1.8E1,3E0,4.33E2,5.3E1,2.4E1,1.358E3,2.46E2,2.5E1,8E0,1.1E1,7E0,1.652E3,3E1,7E0,2.04E2,3.6E1,4E0,8E0,1E0,4E0,8E0,8E0,2E0,5E0,8E0,2E0,2.2E1,1.584E3],"tree_param":{"num_deleted":"0","num_feature":"60","num_nodes":"123","size_leaf_vector":"1"}},{"base_weights":[3.1678365E-3,-3.2326183E-1,2.760407E1,-1.0118374E0,3.8215485E0,2.0363169E1,4.3494022E1,-1.7692987E0,7.875814E-2,2.8297634E0,7.9229727E0,1.6374353E1,2.4248735E1,2.7521008E1,4.5583263E1,-2.3533607E0,-1.3697009E0,-3.293827E-1,8.041466E-1,2.1324697E0,3.9801252E0,6.3969193E0,9.96845E0,1.5661355E1,2.187702E1,2.3145844E1,2.9823587E1,3.2599365E1,-4.3743467E0,5.0366354E0,4.6646362E1,-3.2275326E0,-2.2396207E0,-1.6097348E0,-1.1029111E0,-5.8444244E-1,-6.644922E-2,5.222734E-1,1.0901656E0,2.1501646E0,-8.195634E0,3.5595438E0,4.719403E0,6.3808937E0,1.3741092E1,8.952933E0,1.2436359E1,1.5282797E1,2.8718662E1,-6.3986416E0,2.2563139E1,2.2387318E1,3.71606E1,3.259549E1,-1.1384844E0,4.520286E1,2.9205294E1,4.0098457E1,-2.2368933E1,3.0681454E1,-5.4531147E1,-2.7798588E1,4.7387604E1,-1.242296E0,-9.157992E-1,-7.2579086E-1,-6.1298716E-1,-5.3392535E-1,-4.5231995E-1,-3.7989366E-1,-2.9170555E-1,-2.1400388E-1,-1.3430326E-1,-7.9381555E-2,1.3073413E-2,1.2898153E-1,2.1567789E-1,3.3231932E-1,-9.825291E-2,5.666582E-1,8.0056334E-1,2.1484326E-1,-8.708871E0,1.0858464E0,-3.050111E0,1.4509562E0,6.263627E-1,1.7728597E0,2.1218169E0,5.0779123E0,2.6182487E0,2.6471808E0,3.9245822E0,9.808642E0,4.507207E0,9.137344E0,-2.256363E0,-8.097324E0,6.9424734E0,6.5728536E0,1.3763716E1,1.5510786E1,8.081319E0,1.3441281E1,8.871662E0,1.0452812E1,-1.0393509E1,1.3757603E1,3.2390444E0,9.000414E0,-2.0265336E0,3.5691895E0,1.3936896E1,-8.041955E-1,-1.6946503E1,1.0979223E1,5.1407847E0,5.7928085E0,-5.296135E1,8.368122E0,-2.609329E1,-4.2920947E0,1.4412896E1],"categories":[],"categories_nodes":[],"categories_segments":[],"categories_sizes":[],"default_left":[0,0,0,0,0,0,0,0,0,0,0,0,0,0,0,0,0,0,0,0,0,0,0,0,0,0,0,0,0,0,0,0,0,0,0,0,0,0,0,0,0,0,0,0,0,0,0,0,0,0,0,0,0,0,0,0,0,0,0,0,0,0,0,0,0,0,0,0,0,0,0,0,0,0,0,0,0,0,0,0,0,0,0,0,0,0,0,0,0,0,0,0,0,0,0,0,0,0,0,0,0,0,0,0,0,0,0,0,0,0,0,0,0,0,0,0,0,0,0,0,0,0,0],"id":9,"left_children":[1,3,5,7,9,11,13,15,17,19,21,23,25,27,29,31,33,35,37,39,41,43,45,47,49,51,53,55,57,59,61,63,65,67,69,71,73,75,77,79,81,83,85,87,-1,89,91,93,95,-1,97,99,101,103,105,107,109,111,113,115,117,119,121,-1,-1,-1,-1,-1,-1,-1,-1,-1,-1,-1,-1,-1,-1,-1,-1,-1,-1,-1,-1,-1,-1,-1,-1,-1,-1,-1,-1,-1,-1,-1,-1,-1,-1,-1,-1,-1,-1,-1,-1,-1,-1,-1,-1,-1,-1,-1,-1,-1,-1,-1,-1,-1,-1,-1,-1,-1,-1,-1,-1],"loss_changes":[4.4615035E6,1.3967529E6,6.650675E5,3.4668947E5,2.8358388E5,6.125725E4,5.9181E4,5.779925E4,5.092684E4,4.50285E4,4.231375E4,7.37075E3,1.16865E4,3.4481516E4,6.87335E4,9.996125E3,9.4155625E3,7.3822715E3,4.9927773E3,6.406578E3,6.571125E3,4.6197188E3,1.4422125E4,8.1815938E3,7.0919375E3,1.7080625E4,2.8273125E4,6.5080625E3,2.490505E4,6.58325E4,8.734525E4,1.8372422E3,3.13575E3,1.3397188E3,1.4846484E3,9.8474805E2,1.1817974E3,5.661465E2,7.65875E2,4.722328E3,1.1160832E4,1.1152375E4,2.3568906E3,2.4939688E3,0E0,7.2436875E3,3.8211875E3,7.1553438E3,3.2543594E3,0E0,6.930711E3,1.6965188E4,1.1243445E4,9.8220625E3,3.4964074E4,3.397422E2,4.4108984E3,1.0609863E3,1.4627131E4,1.7769043E3,1.2052629E5,5.515923E4,6.31165E4,0E0,0E0,0E0,0E0,0E0,0E0,0E0,0E0,0E0,0E0,0E0,0E0,0E0,0E0,0E0,0E0,0E0,0E0,0E0,0E0,0E0,0E0,0E0,0E0,0E0,0E0,0E0,0E0,0E0,0E0,0E0,0E0,0E0,0E0,0E0,0E0,0E0,0E0,0E0,0E0,0E0,0E0,0E0,0E0,0E0,0E0,0E0,0E0,0E0,0E0,0E0,0E0,0E0,0E0,0E0,0E0,0E0,0E0,0E0,0E0],"parents":[2147483647,0,0,1,1,2,2,3,3,4,4,5,5,6,6,7,7,8,8,9,9,10,10,11,11,12,12,13,13,14,14,15,15,16,16,17,17,18,18,19,19,20,20,21,21,22,22,23,23,24,24,25,25,26,26,27,27,28,28,29,29,30,30,31,31,32,32,33,33,34,34,35,35,36,36,37,37,38,38,39,39,40,40,41,41,42,42,43,43,45,45,46,46,47,47,48,48,50,50,51,51,52,52,53,53,54,54,55,55,56,56,57,57,58,58,59,59,60,60,61,61,62,62],"right_children":[2,4,6,8,10,12,14,16,18,20,22,24,26,28,30,32,34,36,38,40,42,44,46,48,50,52,54,56,58,60,62,64,66,68,70,72,74,76,78,80,82,84,86,88,-1,90,92,94,96,-1,98,100,102,104,106,108,110,112,114,116,118,120,122,-1,-1,-1,-1,-1,-1,-1,-1,-1,-1,-1,-1,-1,-1,-1,-1,-1,-1,-1,-1,-1,-1,-1,-1,-1,-1,-1,-1,-1,-1,-1,-1,-1,-1,-1,-1,-1,-1,-1,-1,-1,-1,-1,-1,-1,-1,-1,-1,-1,-1,-1,-1,-1,-1,-1,-1,-1,-1,-1,-1],"split_conditions":[2.0335937E-1,5.754099E-2,3.762705E-1,2.9813277E-2,1.0504003E-1,2.7258343E-1,3.78444E-1,1.6879862E-2,4.28053E-2,7.6540604E-2,1.3180555E-1,2.723923E-1,3.76798E-1,3.7844887E-1,3.7757948E-1,6.583928E-3,2.3263538E-2,3.5703644E-2,4.9247585E-2,7.9651855E-2,8.9771956E-2,1.6685471E-1,1.6659585E-1,2.7248085E-1,2.0250463E-1,3.7635842E-1,3.7774065E-1,3.7774065E-1,3.787468E-1,3.7736458E-1,3.7795556E-1,3.7022384E-3,1.3158088E-2,1.9370815E-2,2.5993817E-2,3.273404E-2,3.7857585E-2,4.7000844E-2,5.960213E-2,6.819836E-2,7.653084E-2,9.240943E-2,1.0512306E-1,1.1592207E-1,1.3741092E1,9.245828E-2,1.6689378E-1,1.6649328E-1,2.7239293E-1,-6.3986416E0,2.0230438E-1,3.76798E-1,3.7771136E-1,3.7836096E-1,3.7771136E-1,3.7836096E-1,3.7836096E-1,3.779067E-1,3.7779927E-1,3.7782857E-1,3.7795556E-1,3.7757948E-1,3.7771136E-1,-1.242296E0,-9.157992E-1,-7.2579086E-1,-6.1298716E-1,-5.3392535E-1,-4.5231995E-1,-3.7989366E-1,-2.9170555E-1,-2.1400388E-1,-1.3430326E-1,-7.9381555E-2,1.3073413E-2,1.2898153E-1,2.1567789E-1,3.3231932E-1,-9.825291E-2,5.666582E-1,8.0056334E-1,2.1484326E-1,-8.708871E0,1.0858464E0,-3.050111E0,1.4509562E0,6.263627E-1,1.7728597E0,2.1218169E0,5.0779123E0,2.6182487E0,2.6471808E0,3.9245822E0,9.808642E0,4.507207E0,9.137344E0,-2.256363E0,-8.097324E0,6.9424734E0,6.5728536E0,1.3763716E1,1.5510786E1,8.081319E0,1.3441281E1,8.871662E0,1.0452812E1,-1.0393509E1,1.3757603E1,3.2390444E0,9.000414E0,-2.0265336E0,3.5691895E0,1.3936896E1,-8.041955E-1,-1.6946503E1,1.0979223E1,5.1407847E0,5.7928085E0,-5.296135E1,8.368122E0,-2.609329E1,-4.2920947E0,1.4412896E1],"split_indices":[54,59,0,59,58,39,57,59,59,57,56,1,54,52,9,59,59,59,57,55,57,58,22,15,48,29,2,5,7,27,3,1,59,59,59,59,59,59,54,59,58,55,55,23,0,5,51,14,42,0,57,40,16,58,18,58,58,48,59,34,3,39,11,0,0,0,0,0,0,0,0,0,0,0,0,0,0,0,0,0,0,0,0,0,0,0,0,0,0,0,0,0,0,0,0,0,0,0,0,0,0,0,0,0,0,0,0,0,0,0,0,0,0,0,0,0,0,0,0,0,0,0,0],"split_type":[0,0,0,0,0,0,0,0,0,0,0,0,0,0,0,0,0,0,0,0,0,0,0,0,0,0,0,0,0,0,0,0,0,0,0,0,0,0,0,0,0,0,0,0,0,0,0,0,0,0,0,0,0,0,0,0,0,0,0,0,0,0,0,0,0,0,0,0,0,0,0,0,0,0,0,0,0,0,0,0,0,0,0,0,0,0,0,0,0,0,0,0,0,0,0,0,0,0,0,0,0,0,0,0,0,0,0,0,0,0,0,0,0,0,0,0,0,0,0,0,0,0,0],"sum_hessian":[4.95184E5,4.89397E5,5.787E3,4.19677E5,6.972E4,3.977E3,1.81E3,2.47664E5,1.72013E5,5.6145E4,1.3575E4,1.965E3,2.012E3,2.11E2,1.599E3,1.00608E5,1.47056E5,1.10078E5,6.1935E4,3.4958E4,2.1187E4,7.777E3,5.798E3,1.743E3,2.22E2,1.684E3,3.28E2,1.82E2,2.9E1,4.1E1,1.558E3,1.158E4,8.9028E4,7.7407E4,6.9649E4,5.5875E4,5.4203E4,3.1195E4,3.074E4,3.4899E4,5.9E1,1.3508E4,7.679E3,7.775E3,2E0,4.111E3,1.687E3,1.696E3,4.7E1,3E0,2.19E2,1.6E3,8.4E1,3.01E2,2.7E1,3.6E1,1.46E2,8E0,2.1E1,2.9E1,1.2E1,1.5E1,1.543E3,1.857E3,9.723E3,4.6479E4,4.2549E4,2.902E4,4.8387E4,3.093E4,3.8719E4,2.8762E4,2.7113E4,1.9351E4,3.4852E4,2.123E4,9.965E3,3.0364E4,3.76E2,2.3206E4,1.1693E4,4.2E1,1.7E1,1.345E4,5.8E1,7.351E3,3.28E2,4.63E3,3.145E3,1.11E2,4E3,2.58E2,1.429E3,2.3E1,1.673E3,4.5E1,2E0,2E0,2.17E2,1.57E3,3E1,3.3E1,5.1E1,5.7E1,2.44E2,1.3E1,1.4E1,3.5E1,1E0,1.43E2,3E0,2E0,6E0,1.4E1,7E0,1.9E1,1E1,8E0,4E0,8E0,7E0,1.6E1,1.527E3],"tree_param":{"num_deleted":"0","num_feature":"60","num_nodes":"123","size_leaf_vector":"1"}},{"base_weights":[2.3883737E-3,-2.2720048E-1,1.9300312E1,-7.7746093E-1,2.3131819E0,1.3986014E1,3.0018082E1,-1.3154167E0,-1.3711117E-1,1.6681205E0,5.308527E0,-8.844395E0,1.4357708E1,1.9245068E1,3.1927963E1,-1.739316E0,-1.0830848E0,-4.0130597E-1,3.145405E-1,1.2309617E0,2.574816E0,4.656172E0,7.7038255E0,-5.0470586E0,-4.407792E1,1.1847543E1,1.7060297E1,2.2033455E1,-7.931924E0,-5.461003E0,3.2605663E1,-2.4520187E0,-1.660228E0,-1.2569115E0,-9.31534E-1,-6.164003E-1,-2.483383E-1,1.4639802E-1,5.170494E-1,9.487474E-1,1.5363512E0,2.5884125E0,-1.8722216E1,4.124187E0,5.55957E0,7.458099E0,1.2928693E1,-2.2548454E0,-1.3661525E1,-5.9180956E0,-1.5396493E1,2.716646E1,1.1686089E1,3.62744E1,1.6700758E1,4.2679287E1,1.999703E1,1.8747023E1,-5.7828728E1,2.6017265E1,-9.52784E1,-5.3578236E1,3.3124256E1,-8.821942E-1,-6.878313E-1,-5.4654086E-1,-4.6728057E-1,-3.7094247E-1,-4.409538E-1,-3.0711266E-1,-2.5571632E-1,-1.7453206E-1,-2.6416296E-1,-1.104456E-1,-4.7524758E-2,2.2785636E-3,6.288387E-2,1.4110291E-1,2.1556161E-1,-2.2146176E-1,2.8651205E-1,3.9630035E-1,4.9360743E-1,7.737906E-1,9.763336E0,-3.465434E1,1.5163877E0,1.2565874E0,-1.1857948E0,8.553689E0,1.6429064E0,2.2009563E0,4.3729873E0,5.2521467E0,-5.970741E-2,-1.2300963E0,1.485672E-2,-1.7120744E0,-4.353515E0,5.903778E0,1.0781206E1,3.3373594E0,4.6681767E0,6.419983E0,1.28216715E1,4.8634834E0,8.251667E0,1.655204E1,3.7068079E0,5.292874E0,1.0205478E1,1.0642548E0,7.1766076E0,5.0351763E0,-2.7660986E1,1.0613999E1,2.2565715E0,-6.570967E0,-4.895333E1,7.3305955E0,-2.7151012E1,-2.0932943E1,1.006669E1],"categories":[],"categories_nodes":[],"categories_segments":[],"categories_sizes":[],"default_left":[0,0,0,0,0,0,0,0,0,0,0,0,0,0,0,0,0,0,0,0,0,0,0,0,0,0,0,0,0,0,0,0,0,0,0,0,0,0,0,0,0,0,0,0,0,0,0,0,0,0,0,0,0,0,0,0,0,0,0,0,0,0,0,0,0,0,0,0,0,0,0,0,0,0,0,0,0,0,0,0,0,0,0,0,0,0,0,0,0,0,0,0,0,0,0,0,0,0,0,0,0,0,0,0,0,0,0,0,0,0,0,0,0,0,0,0,0,0,0,0,0,0,0],"id":10,"left_children":[1,3,5,7,9,11,13,15,17,19,21,23,25,27,29,31,33,35,37,39,41,43,45,47,49,51,53,55,57,59,61,63,65,67,69,71,73,75,77,79,81,83,85,87,89,91,93,95,97,-1,-1,99,101,103,105,107,109,111,113,115,117,119,121,-1,-1,-1,-1,-1,-1,-1,-1,-1,-1,-1,-1,-1,-1,-1,-1,-1,-1,-1,-1,-1,-1,-1,-1,-1,-1,-1,-1,-1,-1,-1,-1,-1,-1,-1,-1,-1,-1,-1,-1,-1,-1,-1,-1,-1,-1,-1,-1,-1,-1,-1,-1,-1,-1,-1,-1,-1,-1,-1,-1],"loss_changes":[2.1939652E6,6.8407E5,3.311865E5,1.3856273E5,1.6833634E5,3.3171125E4,3.9075E4,2.1526594E4,2.1913146E4,2.841261E4,2.4087281E4,8.206529E3,2.5793875E4,2.2378297E4,4.1657E4,4.3581094E3,3.7187344E3,3.8121582E3,2.3077544E3,4.1674062E3,6.801125E3,5.8095625E3,4.1442812E3,1.3642941E3,4.5927734E1,4.6044062E3,1.21260625E4,1.0330164E4,3.835755E4,8.729776E4,7.3643625E4,5.9459766E2,1.1522812E3,2.84375E2,5.494922E2,4.3992383E2,7.294883E2,3.2493213E2,2.8900684E2,2.6759766E2,5.4314453E2,6.2767812E3,3.510509E4,3.993836E3,8.429359E3,2.6253125E3,8.838879E3,1.9157248E2,1.186377E1,0E0,0E0,6.06167E2,4.1153125E3,2.258539E3,9.125469E3,8.0321484E3,7.453672E3,1.4096279E3,2.71953E4,3.7167168E3,3.6282906E4,3.1018096E4,7.3319E4,0E0,0E0,0E0,0E0,0E0,0E0,0E0,0E0,0E0,0E0,0E0,0E0,0E0,0E0,0E0,0E0,0E0,0E0,0E0,0E0,0E0,0E0,0E0,0E0,0E0,0E0,0E0,0E0,0E0,0E0,0E0,0E0,0E0,0E0,0E0,0E0,0E0,0E0,0E0,0E0,0E0,0E0,0E0,0E0,0E0,0E0,0E0,0E0,0E0,0E0,0E0,0E0,0E0,0E0,0E0,0E0,0E0,0E0,0E0,0E0],"parents":[2147483647,0,0,1,1,2,2,3,3,4,4,5,5,6,6,7,7,8,8,9,9,10,10,11,11,12,12,13,13,14,14,15,15,16,16,17,17,18,18,19,19,20,20,21,21,22,22,23,23,24,24,25,25,26,26,27,27,28,28,29,29,30,30,31,31,32,32,33,33,34,34,35,35,36,36,37,37,38,38,39,39,40,40,41,41,42,42,43,43,44,44,45,45,46,46,47,47,48,48,51,51,52,52,53,53,54,54,55,55,56,56,57,57,58,58,59,59,60,60,61,61,62,62],"right_children":[2,4,6,8,10,12,14,16,18,20,22,24,26,28,30,32,34,36,38,40,42,44,46,48,50,52,54,56,58,60,62,64,66,68,70,72,74,76,78,80,82,84,86,88,90,92,94,96,98,-1,-1,100,102,104,106,108,110,112,114,116,118,120,122,-1,-1,-1,-1,-1,-1,-1,-1,-1,-1,-1,-1,-1,-1,-1,-1,-1,-1,-1,-1,-1,-1,-1,-1,-1,-1,-1,-1,-1,-1,-1,-1,-1,-1,-1,-1,-1,-1,-1,-1,-1,-1,-1,-1,-1,-1,-1,-1,-1,-1,-1,-1,-1,-1,-1,-1,-1,-1,-1,-1],"split_conditions":[2.0245579E-1,5.2661654E-2,3.7779927E-1,2.6907166E-2,1.0055143E-1,3.4243263E-2,3.78444E-1,1.4979902E-2,3.928378E-2,7.367357E-2,1.4529088E-1,2.7257854E-1,2.7258343E-1,3.7771136E-1,3.7635842E-1,5.778032E-3,2.0508839E-2,3.1723008E-2,4.5359746E-2,6.0310345E-2,1.0512306E-1,1.22994415E-1,2.0318842E-1,2.0262185E-1,3.762705E-1,1.6687424E-1,2.5310026E-2,3.7836096E-1,3.782242E-1,3.76798E-1,3.7736458E-1,3.7022384E-3,1.05938725E-2,2.003507E-2,2.3263538E-2,3.1146668E-2,3.4858674E-2,4.0934645E-2,5.1118243E-2,4.6190064E-2,6.3646264E-2,1.22994415E-1,9.588212E-2,1.3180067E-1,2.0967955E-2,2.0253393E-1,2.0266092E-1,3.7794092E-1,1.0335009E-2,-5.9180956E0,-1.5396493E1,2.0283186E-1,2.723392E-1,2.0503953E-2,3.76798E-1,3.7771136E-1,3.7795556E-1,3.77853E-1,3.762705E-1,3.76925E-1,3.7728155E-1,3.7818024E-1,3.765587E-1,-8.821942E-1,-6.878313E-1,-5.4654086E-1,-4.6728057E-1,-3.7094247E-1,-4.409538E-1,-3.0711266E-1,-2.5571632E-1,-1.7453206E-1,-2.6416296E-1,-1.104456E-1,-4.7524758E-2,2.2785636E-3,6.288387E-2,1.4110291E-1,2.1556161E-1,-2.2146176E-1,2.8651205E-1,3.9630035E-1,4.9360743E-1,7.737906E-1,9.763336E0,-3.465434E1,1.5163877E0,1.2565874E0,-1.1857948E0,8.553689E0,1.6429064E0,2.2009563E0,4.3729873E0,5.2521467E0,-5.970741E-2,-1.2300963E0,1.485672E-2,-1.7120744E0,-4.353515E0,5.903778E0,1.0781206E1,3.3373594E0,4.6681767E0,6.419983E0,1.28216715E1,4.8634834E0,8.251667E0,1.655204E1,3.7068079E0,5.292874E0,1.0205478E1,1.0642548E0,7.1766076E0,5.0351763E0,-2.7660986E1,1.0613999E1,2.2565715E0,-6.570967E0,-4.895333E1,7.3305955E0,-2.7151012E1,-2.0932943E1,1.006669E1],"split_indices":[50,59,59,59,57,59,20,59,59,59,5,58,39,16,29,59,59,59,57,59,55,59,32,56,0,6,0,58,23,40,27,36,59,59,59,59,59,59,57,49,58,59,13,46,43,47,59,36,57,0,0,45,4,3,54,56,3,53,0,26,10,33,24,0,0,0,0,0,0,0,0,0,0,0,0,0,0,0,0,0,0,0,0,0,0,0,0,0,0,0,0,0,0,0,0,0,0,0,0,0,0,0,0,0,0,0,0,0,0,0,0,0,0,0,0,0,0,0,0,0,0,0,0],"split_type":[0,0,0,0,0,0,0,0,0,0,0,0,0,0,0,0,0,0,0,0,0,0,0,0,0,0,0,0,0,0,0,0,0,0,0,0,0,0,0,0,0,0,0,0,0,0,0,0,0,0,0,0,0,0,0,0,0,0,0,0,0,0,0,0,0,0,0,0,0,0,0,0,0,0,0,0,0,0,0,0,0,0,0,0,0,0,0,0,0,0,0,0,0,0,0,0,0,0,0,0,0,0,0,0,0,0,0,0,0,0,0,0,0,0,0,0,0,0,0,0,0,0,0],"sum_hessian":[4.95184E5,4.89363E5,5.821E3,4.02237E5,8.7126E4,3.893E3,1.928E3,2.18595E5,1.83642E5,7.1689E4,1.5437E4,6.2E1,3.831E3,2.92E2,1.636E3,7.7389E4,1.41206E5,1.15866E5,6.7776E4,4.837E4,2.3319E4,1.2135E4,3.302E3,5.7E1,5E0,1.989E3,1.842E3,2.65E2,2.7E1,2.9E1,1.607E3,7.727E3,6.9662E4,6.5766E4,7.544E4,4.8153E4,6.7713E4,3.7031E4,3.0745E4,2.5141E4,2.3229E4,2.3305E4,1.4E1,7.641E3,4.494E3,3.156E3,1.46E2,4.4E1,1.3E1,2E0,3E0,1.9E1,1.97E3,3.2E1,1.81E3,2.2E1,2.43E2,1.8E1,9E0,2.2E1,7E0,9E0,1.598E3,1.895E3,5.832E3,2.7053E4,4.2609E4,6.0013E4,5.753E3,3.4846E4,4.0594E4,4.2575E4,5.578E3,2.903E4,3.8683E4,1.1588E4,2.5443E4,2.4962E4,5.783E3,9.3E1,2.5048E4,7.811E3,1.5418E4,2.3299E4,6E0,2E0,1.2E1,7.581E3,6E1,1.5E1,4.479E3,3.105E3,5.1E1,1.08E2,3.8E1,2.4E1,2E1,2E0,1.1E1,1.2E1,7E0,1.724E3,2.46E2,1.1E1,2.1E1,1.734E3,7.6E1,1.5E1,7E0,2.1E2,3.3E1,5E0,1.3E1,3E0,6E0,1.4E1,8E0,4E0,3E0,3E0,6E0,6E0,1.592E3],"tree_param":{"num_deleted":"0","num_feature":"60","num_nodes":"123","size_leaf_vector":"1"}},{"base_weights":[1.6165096E-3,-1.5904845E-1,1.3506194E1,-5.1876336E-1,1.7538494E0,9.900765E0,2.1441418E1,-8.887626E-1,-1.3775246E-2,1.181027E0,3.4783652E0,7.9111986E0,1.1653701E1,1.9452269E0,2.2105711E1,-1.1603861E0,-6.894874E-1,-2.1265168E-1,2.9850695E-1,1.0010823E0,1.8952761E0,2.8939724E0,4.9373417E0,8.546216E0,3.150899E-1,2.6663954E1,1.1367892E1,7.238524E0,-2.9442549E1,-4.5311172E1,2.224677E1,-1.4273212E0,-1.0620948E0,-8.06174E-1,-5.877193E-1,-3.2430807E-1,-9.6753E-2,1.7095864E-1,4.5011026E-1,8.001037E-1,1.2017756E0,1.8842511E0,1.0098306E1,2.8625827E0,1.4808792E1,4.440964E0,6.205345E0,8.035298E0,3.938874E1,9.330682E0,-1.3524612E1,9.427752E0,2.9512117E1,8.392094E0,1.23589E1,2.2950684E1,3.5030668E0,-8.510825E0,-1.3345729E1,-4.0008273E0,-1.5457252E1,1.1157002E1,2.2776709E1,-5.4201114E-1,-3.9717087E-1,-3.314045E-1,-2.9091355E-1,-1.6145396E-1,-2.4988744E-1,-1.6934559E-1,-2.6071674E-1,-8.817815E-2,-2.226425E-1,-2.1512663E-2,-1.23858005E-1,5.8667522E-2,-1.1372256E-2,1.3984151E-1,-1.3310324E-1,2.4429534E-1,-1.0964721E0,3.7344018E-1,1.0696425E-1,5.8243525E-1,-9.780433E-1,7.677339E-1,1.0231793E0,7.903524E0,3.1715446E0,1.3239856E0,6.600406E0,3.3900206E0,1.6882536E0,2.3002167E0,1.0759598E1,1.283534E1,2.4954896E0,6.2268143E0,-1.2592164E-1,5.444157E0,-6.654398E0,9.335999E-1,4.01597E0,2.990741E0,9.79377E0,3.6269364E0,-1.0611737E0,-3.4415632E-1,3.8806622E0,7.584378E0,2.9632875E-1,2.4239445E0,-5.682946E-1,2.2232301E0,-4.3031745E0,6.4428096E0,-8.017797E0,-1.4653686E0,6.9648232E0],"categories":[],"categories_nodes":[],"categories_segments":[],"categories_sizes":[],"default_left":[0,0,0,0,0,0,0,0,0,0,0,0,0,0,0,0,0,0,0,0,0,0,0,0,0,0,0,0,0,0,0,0,0,0,0,0,0,0,0,0,0,0,0,0,0,0,0,0,0,0,0,0,0,0,0,0,0,0,0,0,0,0,0,0,0,0,0,0,0,0,0,0,0,0,0,0,0,0,0,0,0,0,0,0,0,0,0,0,0,0,0,0,0,0,0,0,0,0,0,0,0,0,0,0,0,0,0,0,0,0,0,0,0,0,0,0,0,0,0],"id":11,"left_children":[1,3,5,7,9,11,13,15,17,19,21,23,25,27,29,31,33,35,37,39,41,43,45,47,49,51,53,55,57,59,61,63,65,67,69,71,73,75,77,79,81,83,-1,85,87,89,91,93,95,97,99,101,103,105,107,109,111,113,-1,-1,-1,115,117,-1,-1,-1,-1,-1,-1,-1,-1,-1,-1,-1,-1,-1,-1,-1,-1,-1,-1,-1,-1,-1,-1,-1,-1,-1,-1,-1,-1,-1,-1,-1,-1,-1,-1,-1,-1,-1,-1,-1,-1,-1,-1,-1,-1,-1,-1,-1,-1,-1,-1,-1,-1,-1,-1,-1,-1],"loss_changes":[1.0744112E6,3.367312E5,1.663545E5,7.6962836E4,7.651211E4,1.38755625E4,2.350225E4,1.2866844E4,1.0817675E4,7.471336E3,1.6452297E4,9.060961E3,8.821844E3,1.0347954E4,1.7726438E4,2.6379688E3,1.6279141E3,1.377041E3,1.3103555E3,1.8724844E3,4.034082E3,5.1158438E3,3.4480312E3,2.7007875E4,1.8343066E4,1.6363359E3,6.0568438E3,3.0302834E3,2.4553135E3,1.0751367E2,1.00598125E4,1.0597461E3,2.8821875E2,4.5807812E2,4.7831445E2,6.877803E2,4.1334485E2,1.8911877E2,4.437876E2,1.4727217E3,8.446289E2,3.4482578E3,0E0,2.2791406E3,1.4811279E3,1.8335234E3,4.5023945E3,1.7202883E4,2.598289E3,9.9235E3,1.63046045E4,1.333612E2,1.695582E3,2.3201062E4,1.2203297E4,4.8688965E2,1.1022139E3,5.706598E2,0E0,0E0,0E0,3.2629055E4,2.0458312E4,0E0,0E0,0E0,0E0,0E0,0E0,0E0,0E0,0E0,0E0,0E0,0E0,0E0,0E0,0E0,0E0,0E0,0E0,0E0,0E0,0E0,0E0,0E0,0E0,0E0,0E0,0E0,0E0,0E0,0E0,0E0,0E0,0E0,0E0,0E0,0E0,0E0,0E0,0E0,0E0,0E0,0E0,0E0,0E0,0E0,0E0,0E0,0E0,0E0,0E0,0E0,0E0,0E0,0E0,0E0,0E0],"parents":[2147483647,0,0,1,1,2,2,3,3,4,4,5,5,6,6,7,7,8,8,9,9,10,10,11,11,12,12,13,13,14,14,15,15,16,16,17,17,18,18,19,19,20,20,21,21,22,22,23,23,24,24,25,25,26,26,27,27,28,28,29,29,30,30,31,31,32,32,33,33,34,34,35,35,36,36,37,37,38,38,39,39,40,40,41,41,43,43,44,44,45,45,46,46,47,47,48,48,49,49,50,50,51,51,52,52,53,53,54,54,55,55,56,56,57,57,61,61,62,62],"right_children":[2,4,6,8,10,12,14,16,18,20,22,24,26,28,30,32,34,36,38,40,42,44,46,48,50,52,54,56,58,60,62,64,66,68,70,72,74,76,78,80,82,84,-1,86,88,90,92,94,96,98,100,102,104,106,108,110,112,114,-1,-1,-1,116,118,-1,-1,-1,-1,-1,-1,-1,-1,-1,-1,-1,-1,-1,-1,-1,-1,-1,-1,-1,-1,-1,-1,-1,-1,-1,-1,-1,-1,-1,-1,-1,-1,-1,-1,-1,-1,-1,-1,-1,-1,-1,-1,-1,-1,-1,-1,-1,-1,-1,-1,-1,-1,-1,-1,-1,-1],"split_conditions":[2.0245579E-1,5.546031E-2,3.7774065E-1,2.8812012E-2,9.23899E-2,2.7108395E-1,2.7108395E-1,1.6879862E-2,4.064159E-2,7.966162E-2,1.3179578E-1,2.727397E-1,2.5476089E-2,2.7284715E-1,2.7257854E-1,9.392355E-3,2.220122E-2,3.4453284E-2,4.7425773E-2,6.365115E-2,1.6692798E-1,1.6685471E-1,1.6687424E-1,2.7232453E-1,2.724955E-1,2.0030184E-2,2.7215847E-1,3.768615E-1,2.7257854E-1,2.7232453E-1,3.7757948E-1,5.333568E-3,1.4979902E-2,1.7348748E-2,2.81966E-2,3.4062546E-2,4.007014E-2,4.657592E-2,5.754099E-2,6.822766E-2,7.9686046E-2,9.597003E-2,1.0098306E1,1.0985098E-1,7.225226E-2,2.0250463E-1,1.6681075E-1,2.724955E-1,2.7284715E-1,2.7215847E-1,2.723923E-1,1.905334E-2,2.00253E-2,2.724955E-1,2.7248085E-1,2.7257854E-1,3.7799463E-1,3.7795556E-1,-1.3345729E1,-4.0008273E0,-1.5457252E1,3.765587E-1,3.762705E-1,-5.4201114E-1,-3.9717087E-1,-3.314045E-1,-2.9091355E-1,-1.6145396E-1,-2.4988744E-1,-1.6934559E-1,-2.6071674E-1,-8.817815E-2,-2.226425E-1,-2.1512663E-2,-1.23858005E-1,5.8667522E-2,-1.1372256E-2,1.3984151E-1,-1.3310324E-1,2.4429534E-1,-1.0964721E0,3.7344018E-1,1.0696425E-1,5.8243525E-1,-9.780433E-1,7.677339E-1,1.0231793E0,7.903524E0,3.1715446E0,1.3239856E0,6.600406E0,3.3900206E0,1.6882536E0,2.3002167E0,1.0759598E1,1.283534E1,2.4954896E0,6.2268143E0,-1.2592164E-1,5.444157E0,-6.654398E0,9.335999E-1,4.01597E0,2.990741E0,9.79377E0,3.6269364E0,-1.0611737E0,-3.4415632E-1,3.8806622E0,7.584378E0,2.9632875E-1,2.4239445E0,-5.682946E-1,2.2232301E0,-4.3031745E0,6.4428096E0,-8.017797E0,-1.4653686E0,6.9648232E0],"split_indices":[50,59,2,59,57,59,59,59,59,59,39,46,0,57,58,58,59,59,59,59,59,58,6,50,54,8,0,22,58,50,9,58,59,59,59,59,59,59,51,53,51,51,0,10,53,48,0,54,57,0,43,10,28,14,15,58,47,6,0,0,0,24,0,0,0,0,0,0,0,0,0,0,0,0,0,0,0,0,0,0,0,0,0,0,0,0,0,0,0,0,0,0,0,0,0,0,0,0,0,0,0,0,0,0,0,0,0,0,0,0,0,0,0,0,0,0,0,0,0],"split_type":[0,0,0,0,0,0,0,0,0,0,0,0,0,0,0,0,0,0,0,0,0,0,0,0,0,0,0,0,0,0,0,0,0,0,0,0,0,0,0,0,0,0,0,0,0,0,0,0,0,0,0,0,0,0,0,0,0,0,0,0,0,0,0,0,0,0,0,0,0,0,0,0,0,0,0,0,0,0,0,0,0,0,0,0,0,0,0,0,0,0,0,0,0,0,0,0,0,0,0,0,0,0,0,0,0,0,0,0,0,0,0,0,0,0,0,0,0,0,0],"sum_hessian":[4.95184E5,4.89363E5,5.821E3,4.11906E5,7.7457E4,4.004E3,1.817E3,2.37726E5,1.7418E5,5.8145E4,1.9312E4,1.878E3,2.126E3,6E1,1.757E3,1.00599E5,1.37127E5,1.06412E5,6.7768E4,4.6446E4,1.1699E4,1.3791E4,5.521E3,1.733E3,1.45E2,3.8E1,2.088E3,5.2E1,8E0,3E0,1.754E3,2.707E4,7.3529E4,6.3878E4,7.3249E4,5.4197E4,5.2215E4,3.6805E4,3.0963E4,2.3209E4,2.3237E4,1.1696E4,3E0,1.3756E4,3.5E1,3.971E3,1.55E3,1.706E3,2.7E1,8.8E1,5.7E1,6E0,3.2E1,5.24E2,1.564E3,9E0,4.3E1,4E0,4E0,1E0,2E0,8.1E1,1.673E3,5.795E3,2.1275E4,5.0321E4,2.3208E4,5.806E3,5.8072E4,6.7664E4,5.585E3,5.0525E4,3.672E3,4.8383E4,3.832E3,3.2927E4,3.878E3,3.0418E4,5.45E2,2.3136E4,7.3E1,2.2111E4,1.126E3,1.1568E4,1.28E2,8.857E3,4.899E3,8E0,2.7E1,3.966E3,5E0,1.56E2,1.394E3,1.685E3,2.1E1,2.4E1,3E0,4E1,4.8E1,1.2E1,4.5E1,3E0,3E0,5E0,2.7E1,4E2,1.24E2,6.4E1,1.5E3,8E0,1E0,2.3E1,2E1,1E0,3E0,6.4E1,1.7E1,2.6E1,1.647E3],"tree_param":{"num_deleted":"0","num_feature":"60","num_nodes":"119","size_leaf_vector":"1"}},{"base_weights":[1.2695645E-3,-1.11267515E-1,9.460492E0,-3.4822583E-1,1.315059E0,6.8181567E0,1.4768963E1,-6.058426E-1,3.7154112E-2,9.995193E-1,2.8869045E0,5.470262E0,8.154266E0,-2.0223719E1,1.4906572E1,-7.743245E-1,-4.266842E-1,-9.626196E-2,2.8978E-1,7.8233504E-1,1.6016715E0,1.6906923E1,2.8601444E0,5.8021917E0,-3.0938838E0,7.668052E0,1.3585887E1,-2.5637908E0,-8.929493E0,9.717067E0,1.5827439E1,-9.666811E-1,-7.0377195E-1,-4.8516148E-1,-3.2499725E-1,-1.6526455E-1,3.1010551E-2,2.1668771E-1,4.3851885E-1,7.8523904E-1,-4.078482E1,1.6330314E0,-4.7388372E0,9.423224E0,2.4945038E1,2.43526E0,3.7443936E0,5.569347E0,1.6862808E1,6.855112E0,-2.5020184E1,7.232027E0,1.6914036E1,1.7106798E1,-2.1355309E1,1.1915091E1,-2.6669384E1,-2.6999977E1,1.6160728E1,-4.607974E-1,-2.8025848E-1,-1.1404526E-1,-2.1749982E-1,-1.3849199E-1,-2.7866173E-1,-7.863493E-2,-1.2196655E-1,-4.3205544E-2,-1.0183916E-1,1.840873E-2,-1.6485865E-1,6.78345E-2,-1.63809E-1,1.3741568E-1,-3.267467E-1,2.0749374E-1,3.2419482E-1,-1.7790535E1,-5.6263506E-1,4.991206E-1,-2.4207488E-1,-2.5534925E1,-7.5967515E-1,7.4684453E-1,3.137277E0,8.340553E0,2.7035646E0,7.20992E-1,3.8307748E0,2.50145E0,1.0797093E0,1.5806217E0,4.0571885E0,5.6606383E0,-4.5135498E-2,3.6178832E0,-2.3283105E0,-2.8441563E0,-1.2333204E1,2.0778735E0,8.542695E0,1.1158194E1,3.127923E0,8.908842E0,3.983663E0,6.7797246E0,-1.3677724E1,7.540937E0,2.8534946E0,3.1037326E0,-2.887644E1,9.321215E0,-2.4364058E1,-7.919331E0,4.9722443E0],"categories":[],"categories_nodes":[],"categories_segments":[],"categories_sizes":[],"default_left":[0,0,0,0,0,0,0,0,0,0,0,0,0,0,0,0,0,0,0,0,0,0,0,0,0,0,0,0,0,0,0,0,0,0,0,0,0,0,0,0,0,0,0,0,0,0,0,0,0,0,0,0,0,0,0,0,0,0,0,0,0,0,0,0,0,0,0,0,0,0,0,0,0,0,0,0,0,0,0,0,0,0,0,0,0,0,0,0,0,0,0,0,0,0,0,0,0,0,0,0,0,0,0,0,0,0,0,0,0,0,0,0,0,0,0],"id":12,"left_children":[1,3,5,7,9,11,13,15,17,19,21,23,25,27,29,31,33,35,37,39,41,43,45,47,49,51,53,-1,-1,55,57,59,61,63,65,67,69,71,73,75,77,79,81,83,85,87,89,91,93,95,97,99,101,103,105,107,109,111,113,-1,-1,-1,-1,-1,-1,-1,-1,-1,-1,-1,-1,-1,-1,-1,-1,-1,-1,-1,-1,-1,-1,-1,-1,-1,-1,-1,-1,-1,-1,-1,-1,-1,-1,-1,-1,-1,-1,-1,-1,-1,-1,-1,-1,-1,-1,-1,-1,-1,-1,-1,-1,-1,-1,-1,-1],"loss_changes":[5.2713206E5,1.6539567E5,8.1563125E4,4.166282E4,3.457532E4,6.9592344E3,9.61425E3,7.5916562E3,5.666842E3,7.5921016E3,4.3243438E3,5.5299336E3,5.0482812E3,6.369927E2,9.0550625E3,1.7584062E3,7.246953E2,9.662769E2,6.31625E2,5.1832344E3,3.0678516E3,1.0883438E3,4.3618125E3,4.714367E3,1.6096077E4,7.106117E3,1.9926268E4,0E0,0E0,2.3751404E4,2.3774188E4,6.4183203E2,6.512344E2,8.072715E2,2.281543E2,2.6400647E2,6.8162854E2,2.8028088E2,5.717971E2,1.1790664E3,2.0502324E3,1.1486836E3,1.326383E4,6.720215E1,2.0463184E2,2.5650664E3,2.4901367E3,4.3046875E3,1.2997158E3,3.97315E3,5.3611885E3,1.09368125E4,1.0137695E4,6.593367E3,1.7010252E4,8.563082E3,4.4782992E4,4.3450203E4,2.899325E4,0E0,0E0,0E0,0E0,0E0,0E0,0E0,0E0,0E0,0E0,0E0,0E0,0E0,0E0,0E0,0E0,0E0,0E0,0E0,0E0,0E0,0E0,0E0,0E0,0E0,0E0,0E0,0E0,0E0,0E0,0E0,0E0,0E0,0E0,0E0,0E0,0E0,0E0,0E0,0E0,0E0,0E0,0E0,0E0,0E0,0E0,0E0,0E0,0E0,0E0,0E0,0E0,0E0,0E0,0E0,0E0],"parents":[2147483647,0,0,1,1,2,2,3,3,4,4,5,5,6,6,7,7,8,8,9,9,10,10,11,11,12,12,13,13,14,14,15,15,16,16,17,17,18,18,19,19,20,20,21,21,22,22,23,23,24,24,25,25,26,26,29,29,30,30,31,31,32,32,33,33,34,34,35,35,36,36,37,37,38,38,39,39,40,40,41,41,42,42,43,43,44,44,45,45,46,46,47,47,48,48,49,49,50,50,51,51,52,52,53,53,54,54,55,55,56,56,57,57,58,58],"right_children":[2,4,6,8,10,12,14,16,18,20,22,24,26,28,30,32,34,36,38,40,42,44,46,48,50,52,54,-1,-1,56,58,60,62,64,66,68,70,72,74,76,78,80,82,84,86,88,90,92,94,96,98,100,102,104,106,108,110,112,114,-1,-1,-1,-1,-1,-1,-1,-1,-1,-1,-1,-1,-1,-1,-1,-1,-1,-1,-1,-1,-1,-1,-1,-1,-1,-1,-1,-1,-1,-1,-1,-1,-1,-1,-1,-1,-1,-1,-1,-1,-1,-1,-1,-1,-1,-1,-1,-1,-1,-1,-1,-1,-1,-1,-1,-1],"split_conditions":[2.0245579E-1,5.754099E-2,3.7771136E-1,3.0189361E-2,1.1007566E-1,2.7181536E-1,3.362297E-2,1.9370815E-2,4.352328E-2,8.320268E-2,7.8079134E-2,2.7257854E-1,3.7795556E-1,3.3378758E-2,3.7771136E-1,1.05938725E-2,2.58131E-2,3.7857585E-2,5.213416E-2,1.00512356E-1,1.1605883E-1,1.6692798E-1,1.4523715E-1,2.7108395E-1,2.7273482E-1,3.7818024E-1,3.76798E-1,-2.5637908E0,-8.929493E0,3.7771136E-1,3.76798E-1,3.7022384E-3,1.1267895E-2,2.5466321E-2,2.81966E-2,3.698331E-2,4.3166734E-2,5.440532E-2,6.1077166E-2,7.2227836E-2,1.0499607E-1,1.160344E-1,1.0045863E-1,2.4792299E-2,7.9651855E-2,1.6692798E-1,8.978661E-2,2.7198264E-1,2.727397E-1,2.7232453E-1,2.727397E-1,3.7742805E-1,3.76925E-1,3.762705E-1,3.7782857E-1,3.7779927E-1,3.765587E-1,3.7671497E-1,3.768322E-1,-4.607974E-1,-2.8025848E-1,-1.1404526E-1,-2.1749982E-1,-1.3849199E-1,-2.7866173E-1,-7.863493E-2,-1.2196655E-1,-4.3205544E-2,-1.0183916E-1,1.840873E-2,-1.6485865E-1,6.78345E-2,-1.63809E-1,1.3741568E-1,-3.267467E-1,2.0749374E-1,3.2419482E-1,-1.7790535E1,-5.6263506E-1,4.991206E-1,-2.4207488E-1,-2.5534925E1,-7.5967515E-1,7.4684453E-1,3.137277E0,8.340553E0,2.7035646E0,7.20992E-1,3.8307748E0,2.50145E0,1.0797093E0,1.5806217E0,4.0571885E0,5.6606383E0,-4.5135498E-2,3.6178832E0,-2.3283105E0,-2.8441563E0,-1.2333204E1,2.0778735E0,8.542695E0,1.1158194E1,3.127923E0,8.908842E0,3.983663E0,6.7797246E0,-1.3677724E1,7.540937E0,2.8534946E0,3.1037326E0,-2.887644E1,9.321215E0,-2.4364058E1,-7.919331E0,4.9722443E0],"split_indices":[50,59,56,59,59,55,59,59,59,57,54,58,4,58,18,59,59,59,57,48,51,59,47,59,18,33,54,0,0,16,54,14,59,59,59,59,59,51,51,3,0,35,26,5,7,59,0,52,46,50,51,21,26,0,34,59,24,38,49,0,0,0,0,0,0,0,0,0,0,0,0,0,0,0,0,0,0,0,0,0,0,0,0,0,0,0,0,0,0,0,0,0,0,0,0,0,0,0,0,0,0,0,0,0,0,0,0,0,0,0,0,0,0,0,0],"split_type":[0,0,0,0,0,0,0,0,0,0,0,0,0,0,0,0,0,0,0,0,0,0,0,0,0,0,0,0,0,0,0,0,0,0,0,0,0,0,0,0,0,0,0,0,0,0,0,0,0,0,0,0,0,0,0,0,0,0,0,0,0,0,0,0,0,0,0,0,0,0,0,0,0,0,0,0,0,0,0,0,0,0,0,0,0,0,0,0,0,0,0,0,0,0,0,0,0,0,0,0,0,0,0,0,0,0,0,0,0,0,0,0,0,0,0],"sum_hessian":[4.95184E5,4.89363E5,5.821E3,4.19647E5,6.9716E4,3.888E3,1.933E3,2.51515E5,1.68132E5,5.8062E4,1.1654E4,1.938E3,1.95E3,7E0,1.926E3,1.29618E5,1.21897E5,1.10026E5,5.8106E4,4.2673E4,1.5389E4,2.1E1,1.1633E4,1.866E3,7.2E1,1.792E3,1.58E2,4E0,3E0,2.92E2,1.634E3,3.478E4,9.4838E4,7.7389E4,4.4508E4,7.1345E4,3.8681E4,3.8962E4,1.9144E4,4.2671E4,2E0,1.5314E4,7.5E1,1.2E1,9E0,7.86E3,3.773E3,1.829E3,3.7E1,5E1,2.2E1,1.713E3,7.9E1,1.44E2,1.4E1,2.76E2,1.6E1,1.2E1,1.622E3,1.875E3,3.2905E4,5.839E3,8.8999E4,7.3495E4,3.894E3,2.5134E4,1.9374E4,6.3591E4,7.754E3,3.676E4,1.921E3,3.8487E4,4.75E2,1.8903E4,2.41E2,3.2407E4,1.0264E4,1E0,1E0,1.5124E4,1.9E2,1E0,7.4E1,2E0,1E1,7E0,2E0,7.837E3,2.3E1,1.14E2,3.659E3,1.764E3,6.5E1,3.3E1,4E0,3.7E1,1.3E1,1.2E1,1E1,1.69E3,2.3E1,1.8E1,6.1E1,3.2E1,1.12E2,5E0,9E0,4.1E1,2.35E2,1.1E1,5E0,6E0,6E0,1.5E1,1.607E3],"tree_param":{"num_deleted":"0","num_feature":"60","num_nodes":"115","size_leaf_vector":"1"}},{"base_weights":[8.0906367E-4,-7.788663E-2,6.6478653E0,-2.3891835E-1,9.547967E-1,4.8114963E0,1.0362181E1,-4.1399512E-1,5.3241596E-2,6.6937804E-1,1.8296233E0,-1.7792555E0,5.1233644E0,-3.798125E1,1.043254E1,-5.660311E-1,-3.0550975E-1,-5.4426633E-2,2.0524222E-1,6.5552104E-1,9.059765E0,1.4333161E0,2.3159766E0,-1.0008111E0,-1.0067838E1,1.6933466E1,5.015833E0,-1.782399E0,-1.5309165E1,5.7915053E0,1.1168337E1,-8.8949543E-1,-5.416847E-1,-3.6295134E-1,-2.2750483E-1,-1.0946813E-1,5.437789E-4,2.0587473E-1,-4.1193905E0,5.026841E-1,8.719097E-1,-3.8871765E0,9.950958E0,1.5411528E0,6.204033E-1,2.3892877E0,-1.9751697E0,-1.3718997E0,4.20005E0,-2.1076374E0,-4.424252E0,8.944733E0,2.5923632E1,4.202735E0,5.9452786E0,8.347971E0,-2.012098E1,-2.6082558E1,1.14569845E1,-3.3044097E-1,-2.4591184E-1,-1.5805429E-1,-2.7599365E-1,-5.930426E-2,-1.1234279E-1,-5.98593E-2,-2.0979634E-1,-1.7811995E-2,-4.8140015E-2,1.2495735E-1,-1.1133871E-2,6.662249E-2,-9.991252E-2,1.6056298E-1,-1.3362457E0,2.6522642E-1,-1.7731972E0,1.6471001E0,-4.5284395E0,4.9219317E0,1.9014705E0,4.319021E-1,6.313494E-1,-5.3017473E0,2.8697696E-1,6.894388E-1,2.3309324E0,1.8665587E0,-1.8448687E0,-1.0604047E-1,-1.7218119E0,2.5601807E-1,3.1225567E0,4.878363E0,1.1312119E1,1.4343457E0,-3.842214E-1,-8.456181E0,1.8125322E0,5.4863477E0,1.847464E0,3.4580219E0,-1.306495E1,7.995447E0,-3.4736202E1,-9.064382E0,3.5659235E0],"categories":[],"categories_nodes":[],"categories_segments":[],"categories_sizes":[],"default_left":[0,0,0,0,0,0,0,0,0,0,0,0,0,0,0,0,0,0,0,0,0,0,0,0,0,0,0,0,0,0,0,0,0,0,0,0,0,0,0,0,0,0,0,0,0,0,0,0,0,0,0,0,0,0,0,0,0,0,0,0,0,0,0,0,0,0,0,0,0,0,0,0,0,0,0,0,0,0,0,0,0,0,0,0,0,0,0,0,0,0,0,0,0,0,0,0,0,0,0,0,0,0,0,0,0,0,0],"id":13,"left_children":[1,3,5,7,9,11,13,15,17,19,21,23,25,27,29,31,33,35,37,39,41,43,45,47,49,51,53,-1,-1,55,57,59,61,63,65,67,69,71,-1,73,75,77,79,81,83,85,87,89,-1,-1,-1,91,93,95,97,99,101,103,105,-1,-1,-1,-1,-1,-1,-1,-1,-1,-1,-1,-1,-1,-1,-1,-1,-1,-1,-1,-1,-1,-1,-1,-1,-1,-1,-1,-1,-1,-1,-1,-1,-1,-1,-1,-1,-1,-1,-1,-1,-1,-1,-1,-1,-1,-1,-1,-1],"loss_changes":[2.5902917E5,8.1383555E4,3.9470188E4,2.165578E4,1.6483172E4,7.982203E3,6.9133438E3,4.36625E3,2.5962888E3,5.7817812E3,3.1268633E3,1.1255114E3,4.618992E3,9.5110596E2,6.4713594E3,8.6766406E2,6.9217285E2,2.8097437E2,5.826658E2,1.6432148E3,9.848154E2,7.837051E2,2.2980742E3,9.210109E2,1.09951904E2,2.1381807E3,2.7500625E3,0E0,0E0,1.765648E4,1.8051E4,1.1322949E2,5.7496094E2,1.693916E2,8.64667E2,1.1853674E2,7.2783295E2,5.7434424E2,0E0,4.698706E3,1.7044053E3,7.13473E2,1.6917954E3,4.4870898E2,6.474223E3,3.4978828E3,4.2470293E3,7.0519885E2,0E0,0E0,0E0,2.1615369E2,1.0946836E3,6.2290664E3,5.805699E3,5.132955E3,1.8297262E4,6.4582344E4,2.968889E4,0E0,0E0,0E0,0E0,0E0,0E0,0E0,0E0,0E0,0E0,0E0,0E0,0E0,0E0,0E0,0E0,0E0,0E0,0E0,0E0,0E0,0E0,0E0,0E0,0E0,0E0,0E0,0E0,0E0,0E0,0E0,0E0,0E0,0E0,0E0,0E0,0E0,0E0,0E0,0E0,0E0,0E0,0E0,0E0,0E0,0E0,0E0,0E0],"parents":[2147483647,0,0,1,1,2,2,3,3,4,4,5,5,6,6,7,7,8,8,9,9,10,10,11,11,12,12,13,13,14,14,15,15,16,16,17,17,18,18,19,19,20,20,21,21,22,22,23,23,24,24,25,25,26,26,29,29,30,30,31,31,32,32,33,33,34,34,35,35,36,36,37,37,39,39,40,40,41,41,42,42,43,43,44,44,45,45,46,46,47,47,51,51,52,52,53,53,54,54,55,55,56,56,57,57,58,58],"right_children":[2,4,6,8,10,12,14,16,18,20,22,24,26,28,30,32,34,36,38,40,42,44,46,48,50,52,54,-1,-1,56,58,60,62,64,66,68,70,72,-1,74,76,78,80,82,84,86,88,90,-1,-1,-1,92,94,96,98,100,102,104,106,-1,-1,-1,-1,-1,-1,-1,-1,-1,-1,-1,-1,-1,-1,-1,-1,-1,-1,-1,-1,-1,-1,-1,-1,-1,-1,-1,-1,-1,-1,-1,-1,-1,-1,-1,-1,-1,-1,-1,-1,-1,-1,-1,-1,-1,-1,-1,-1],"split_conditions":[2.0318842E-1,5.8879267E-2,3.78444E-1,3.1522755E-2,9.590165E-2,3.6778174E-2,2.7257854E-1,1.767599E-2,4.28053E-2,1.6692798E-1,1.2281858E-1,3.6778174E-2,1.6681075E-1,1.7509928E-2,3.782242E-1,5.778032E-3,2.5119541E-2,3.6573038E-2,1.4560835E-1,7.500696E-2,1.9531993E-2,1.229993E-1,2.035352E-1,3.7782857E-1,3.3378758E-2,2.081166E-2,2.7215847E-1,-1.782399E0,-1.5309165E1,3.78444E-1,3.7728155E-1,3.7120068E-3,1.7348748E-2,1.818395E-2,3.1146668E-2,3.4062546E-2,3.698331E-2,5.819059E-2,-4.1193905E0,7.652595E-2,1.3180555E-1,2.0347659E-2,2.0655364E-2,1.1597091E-1,1.15990445E-1,2.0292467E-1,2.0300283E-1,2.0305654E-1,4.20005E0,-2.1076374E0,-4.424252E0,1.905334E-2,2.0294909E-1,2.7277878E-1,2.0300283E-1,3.76798E-1,3.7795556E-1,3.768322E-1,3.7736458E-1,-3.3044097E-1,-2.4591184E-1,-1.5805429E-1,-2.7599365E-1,-5.930426E-2,-1.1234279E-1,-5.98593E-2,-2.0979634E-1,-1.7811995E-2,-4.8140015E-2,1.2495735E-1,-1.1133871E-2,6.662249E-2,-9.991252E-2,1.6056298E-1,-1.3362457E0,2.6522642E-1,-1.7731972E0,1.6471001E0,-4.5284395E0,4.9219317E0,1.9014705E0,4.319021E-1,6.313494E-1,-5.3017473E0,2.8697696E-1,6.894388E-1,2.3309324E0,1.8665587E0,-1.8448687E0,-1.0604047E-1,-1.7218119E0,2.5601807E-1,3.1225567E0,4.878363E0,1.1312119E1,1.4343457E0,-3.842214E-1,-8.456181E0,1.8125322E0,5.4863477E0,1.847464E0,3.4580219E0,-1.306495E1,7.995447E0,-3.4736202E1,-9.064382E0,3.5659235E0],"split_indices":[32,59,57,59,23,59,58,59,59,59,25,56,0,58,23,59,59,59,55,57,12,52,37,55,58,3,0,0,0,20,25,57,59,59,59,59,59,59,0,55,53,20,32,38,57,20,53,51,0,0,0,10,19,16,40,54,6,30,27,0,0,0,0,0,0,0,0,0,0,0,0,0,0,0,0,0,0,0,0,0,0,0,0,0,0,0,0,0,0,0,0,0,0,0,0,0,0,0,0,0,0,0,0,0,0,0,0],"split_type":[0,0,0,0,0,0,0,0,0,0,0,0,0,0,0,0,0,0,0,0,0,0,0,0,0,0,0,0,0,0,0,0,0,0,0,0,0,0,0,0,0,0,0,0,0,0,0,0,0,0,0,0,0,0,0,0,0,0,0,0,0,0,0,0,0,0,0,0,0,0,0,0,0,0,0,0,0,0,0,0,0,0,0,0,0,0,0,0,0,0,0,0,0,0,0,0,0,0,0,0,0,0,0,0,0,0,0],"sum_hessian":[4.95184E5,4.89391E5,5.793E3,4.23373E5,6.6018E4,3.878E3,1.915E3,2.64732E5,1.58641E5,4.9779E4,1.6239E4,1.75E2,3.703E3,2E0,1.913E3,1.10237E5,1.54495E5,9.2863E4,6.5778E4,4.9698E4,8.1E1,8.95E3,7.289E3,1.61E2,1.4E1,3.2E1,3.671E3,1E0,1E0,2.63E2,1.65E3,7.714E3,1.02523E5,8.8973E4,6.5522E4,4.6401E4,4.6462E4,6.5776E4,2E0,2.9128E4,2.057E4,5E0,7.6E1,7.901E3,1.049E3,7.167E3,1.22E2,1.58E2,3E0,1E1,4E0,1.8E1,1.4E1,1.961E3,1.71E3,2.4E2,2.3E1,1.2E1,1.638E3,1.907E3,5.807E3,9.8656E4,3.867E3,5.801E3,8.3172E4,6.1856E4,3.666E3,2.3409E4,2.2992E4,3.856E3,4.2606E4,6.3857E4,1.919E3,2.8939E4,1.89E2,2.0534E4,3.6E1,3E0,2E0,2.6E1,5E1,6.698E3,1.203E3,1.8E1,1.031E3,7.049E3,1.18E2,4.1E1,8.1E1,1.29E2,2.9E1,3E0,1.5E1,9E0,5E0,1.774E3,1.87E2,4E0,1.706E3,4.2E1,1.98E2,1E1,1.3E1,8E0,4E0,1.6E1,1.622E3],"tree_param":{"num_deleted":"0","num_feature":"60","num_nodes":"107","size_leaf_vector":"1"}},{"base_weights":[4.7138438E-4,-5.4795284E-2,4.6410317E0,-1.9471024E-1,5.419955E-1,3.3507438E0,7.48066E0,-3.1606E-1,-3.319294E-2,3.4077352E-1,1.1442205E0,1.2056422E1,3.2510953E0,-2.375951E-1,7.752998E0,-4.6037143E-1,-2.5938687E-1,-1.0230003E-1,4.9490023E-2,2.6416466E-1,5.1196444E-1,9.137428E-1,1.6660128E0,9.881736E0,7.3634787E0,-5.3460283E0,3.3489325E0,3.0917618E0,-2.0557266E1,-3.248085E1,7.840281E0,-6.565669E-1,-4.4088316E-1,4.6873703E-3,-2.725484E-1,-8.558049E-2,-4.8331544E-1,6.35853E-2,-2.1822017E-1,1.884446E-1,3.2950452E-1,5.2050996E-1,-5.0721054E0,8.851231E0,8.9595085E-1,6.068501E0,1.6031604E0,1.2352945E1,2.2437356E0,-2.9281914E0,-8.221915E0,3.4227476E0,-6.0240874E0,1.2541113E1,9.703429E-1,1.3807709E0,-2.4277567E1,-4.317145E0,-1.3012794E1,2.9966518E-1,8.052144E0,-2.0714778E-1,9.023407E-2,-6.350269E-2,-1.3720013E-1,-2.8577415E-2,9.302649E-2,-2.9096204E-1,-7.635929E-2,-2.9554073E-2,1.5092477E-1,-2.0985553E-1,-8.055724E-2,1.3208115E-2,2.3384969E-1,-5.824546E-2,-2.8489563E0,9.294057E-2,3.4973588E-2,1.0023097E-1,-9.5098025E-1,1.5732975E-1,-1.0551594E0,5.040954E-1,-3.9861107E0,1.6454792E0,4.538027E0,7.951556E-1,2.6191822E-1,1.4581397E0,4.620223E0,5.011297E-1,-2.7699888E-1,1.4389335E0,4.608913E0,-1.4877625E-1,1.3828309E0,-1.3073263E0,-6.1521983E-1,-8.216745E-1,-2.826445E0,9.520808E-1,2.6775262E0,5.96381E0,-1.3025878E1,4.317605E0,-6.175507E-1,-1.6318978E-1,2.4693918E0,-1.5150393E0,-7.890869E0,7.852553E0,-5.5344315E0,-8.425779E-1,2.5389576E0],"categories":[],"categories_nodes":[],"categories_segments":[],"categories_sizes":[],"default_left":[0,0,0,0,0,0,0,0,0,0,0,0,0,0,0,0,0,0,0,0,0,0,0,0,0,0,0,0,0,0,0,0,0,0,0,0,0,0,0,0,0,0,0,0,0,0,0,0,0,0,0,0,0,0,0,0,0,0,0,0,0,0,0,0,0,0,0,0,0,0,0,0,0,0,0,0,0,0,0,0,0,0,0,0,0,0,0,0,0,0,0,0,0,0,0,0,0,0,0,0,0,0,0,0,0,0,0,0,0,0,0,0,0,0,0],"id":14,"left_children":[1,3,5,7,9,11,13,15,17,19,21,23,25,27,29,31,33,35,37,39,41,43,45,47,-1,49,51,53,55,57,59,61,63,65,67,69,71,73,75,77,79,81,83,85,87,89,91,93,95,97,99,101,103,105,107,-1,109,-1,-1,111,113,-1,-1,-1,-1,-1,-1,-1,-1,-1,-1,-1,-1,-1,-1,-1,-1,-1,-1,-1,-1,-1,-1,-1,-1,-1,-1,-1,-1,-1,-1,-1,-1,-1,-1,-1,-1,-1,-1,-1,-1,-1,-1,-1,-1,-1,-1,-1,-1,-1,-1,-1,-1,-1,-1],"loss_changes":[1.26999516E5,4.086148E4,2.1328375E4,7.7698545E3,1.1262043E4,3.4386406E3,3.8274219E3,1.8511504E3,9.7175305E2,9.134912E2,2.7976797E3,9.7958984E2,3.3529414E3,4.3255986E3,6.4283203E3,2.4375E2,5.6489844E2,5.901002E2,2.921845E2,2.3805762E2,1.0303086E3,2.2723994E3,1.9631895E3,7.2728687E2,0E0,2.8882886E2,2.7334375E3,1.0903627E3,9.541587E2,1.6418604E2,2.8013281E3,1.8744702E2,2.1883105E2,2.355788E2,1.9448535E3,6.7568585E2,1.8064374E2,1.0298984E3,8.630594E2,1.9441754E2,4.168037E2,3.424248E2,1.852859E3,6.775415E2,6.447832E2,1.0525127E3,1.196541E3,6.0868604E2,7.357919E1,2.3677338E1,1.0573987E2,5.3057734E3,3.0892006E4,2.998507E2,5.1026318E2,0E0,1.7870166E2,0E0,0E0,2.425318E4,7.6443047E3,0E0,0E0,0E0,0E0,0E0,0E0,0E0,0E0,0E0,0E0,0E0,0E0,0E0,0E0,0E0,0E0,0E0,0E0,0E0,0E0,0E0,0E0,0E0,0E0,0E0,0E0,0E0,0E0,0E0,0E0,0E0,0E0,0E0,0E0,0E0,0E0,0E0,0E0,0E0,0E0,0E0,0E0,0E0,0E0,0E0,0E0,0E0,0E0,0E0,0E0,0E0,0E0,0E0,0E0],"parents":[2147483647,0,0,1,1,2,2,3,3,4,4,5,5,6,6,7,7,8,8,9,9,10,10,11,11,12,12,13,13,14,14,15,15,16,16,17,17,18,18,19,19,20,20,21,21,22,22,23,23,25,25,26,26,27,27,28,28,29,29,30,30,31,31,32,32,33,33,34,34,35,35,36,36,37,37,38,38,39,39,40,40,41,41,42,42,43,43,44,44,45,45,46,46,47,47,48,48,49,49,50,50,51,51,52,52,53,53,54,54,56,56,59,59,60,60],"right_children":[2,4,6,8,10,12,14,16,18,20,22,24,26,28,30,32,34,36,38,40,42,44,46,48,-1,50,52,54,56,58,60,62,64,66,68,70,72,74,76,78,80,82,84,86,88,90,92,94,96,98,100,102,104,106,108,-1,110,-1,-1,112,114,-1,-1,-1,-1,-1,-1,-1,-1,-1,-1,-1,-1,-1,-1,-1,-1,-1,-1,-1,-1,-1,-1,-1,-1,-1,-1,-1,-1,-1,-1,-1,-1,-1,-1,-1,-1,-1,-1,-1,-1,-1,-1,-1,-1,-1,-1,-1,-1,-1,-1,-1,-1,-1,-1],"split_conditions":[2.0230438E-1,5.1132895E-2,3.7774065E-1,2.7634915E-2,8.7432414E-2,1.6665445E-1,2.7108395E-1,1.3739309E-2,3.741312E-2,6.696753E-2,1.22843005E-1,2.6179416E-2,3.0751046E-2,2.7284715E-1,2.7257854E-1,5.3286836E-3,1.4486595E-2,3.698331E-2,5.0195124E-2,5.5440776E-2,8.9728E-2,7.652107E-2,1.0499607E-1,2.112425E-2,7.3634787E0,2.0335937E-1,3.7795556E-1,3.768615E-1,3.7795556E-1,2.7214628E-1,3.762705E-1,3.6792826E-2,6.212727E-3,1.4310763E-2,1.4813838E-2,3.6778174E-2,3.7198216E-2,4.972624E-2,5.96119E-2,5.380456E-2,8.1385754E-2,1.0054655E-1,9.240943E-2,1.3160041E-1,6.2718265E-2,1.664835E-1,2.0266092E-1,2.00253E-2,2.5134195E-2,1.0335009E-2,3.7022384E-3,3.7742805E-1,3.777895E-1,2.7257854E-1,2.7181536E-1,1.3807709E0,1.7509928E-2,-4.317145E0,-1.3012794E1,3.7779927E-1,3.7728155E-1,-2.0714778E-1,9.023407E-2,-6.350269E-2,-1.3720013E-1,-2.8577415E-2,9.302649E-2,-2.9096204E-1,-7.635929E-2,-2.9554073E-2,1.5092477E-1,-2.0985553E-1,-8.055724E-2,1.3208115E-2,2.3384969E-1,-5.824546E-2,-2.8489563E0,9.294057E-2,3.4973588E-2,1.0023097E-1,-9.5098025E-1,1.5732975E-1,-1.0551594E0,5.040954E-1,-3.9861107E0,1.6454792E0,4.538027E0,7.951556E-1,2.6191822E-1,1.4581397E0,4.620223E0,5.011297E-1,-2.7699888E-1,1.4389335E0,4.608913E0,-1.4877625E-1,1.3828309E0,-1.3073263E0,-6.1521983E-1,-8.216745E-1,-2.826445E0,9.520808E-1,2.6775262E0,5.96381E0,-1.3025878E1,4.317605E0,-6.175507E-1,-1.6318978E-1,2.4693918E0,-1.5150393E0,-7.890869E0,7.852553E0,-5.5344315E0,-8.425779E-1,2.5389576E0],"split_indices":[49,59,2,59,59,8,59,59,59,10,23,0,59,57,58,55,59,59,59,5,58,54,0,13,0,54,3,22,6,56,0,0,59,59,59,59,59,59,49,59,41,47,55,59,0,7,59,28,10,55,58,21,31,58,55,0,58,0,0,59,10,0,0,0,0,0,0,0,0,0,0,0,0,0,0,0,0,0,0,0,0,0,0,0,0,0,0,0,0,0,0,0,0,0,0,0,0,0,0,0,0,0,0,0,0,0,0,0,0,0,0,0,0,0,0],"split_type":[0,0,0,0,0,0,0,0,0,0,0,0,0,0,0,0,0,0,0,0,0,0,0,0,0,0,0,0,0,0,0,0,0,0,0,0,0,0,0,0,0,0,0,0,0,0,0,0,0,0,0,0,0,0,0,0,0,0,0,0,0,0,0,0,0,0,0,0,0,0,0,0,0,0,0,0,0,0,0,0,0,0,0,0,0,0,0,0,0,0,0,0,0,0,0,0,0,0,0,0,0,0,0,0,0,0,0,0,0,0,0,0,0,0,0],"sum_hessian":[4.95184E5,4.89357E5,5.827E3,3.96419E5,9.2938E4,4.008E3,1.819E3,2.26355E5,1.70064E5,6.9663E4,2.3275E4,4.4E1,3.964E3,6.2E1,1.757E3,6.3825E4,1.6253E5,9.2637E4,7.7427E4,4.8128E4,2.1535E4,1.6146E4,7.129E3,3.9E1,5E0,4.4E1,3.92E3,5.4E1,8E0,3E0,1.754E3,5.764E3,5.8061E4,7.716E3,1.54814E5,8.8744E4,3.893E3,7.3555E4,3.872E3,2.2295E4,2.5833E4,2.1503E4,3.2E1,3.5E1,1.6111E4,9.9E1,7.03E3,2.9E1,1E1,2.5E1,1.9E1,3.89E3,3E1,9E0,4.5E1,1E0,7E0,2E0,1E0,4.8E1,1.706E3,5.567E3,1.97E2,3.889E3,5.4172E4,5.814E3,1.902E3,3.898E3,1.50916E5,8.6837E4,1.907E3,1.939E3,1.954E3,7.16E4,1.955E3,3.863E3,9E0,8.291E3,1.4004E4,2.58E4,3.3E1,2.1483E4,2E1,1.8E1,1.4E1,2.4E1,1.1E1,2.06E2,1.5905E4,8.9E1,1E1,6.848E3,1.82E2,9E0,2E1,5E0,5E0,8E0,1.7E1,4E0,1.5E1,3.723E3,1.67E2,1.8E1,1.2E1,8E0,1E0,3.8E1,7E0,1E0,6E0,2E1,2.8E1,6.2E1,1.644E3],"tree_param":{"num_deleted":"0","num_feature":"60","num_nodes":"115","size_leaf_vector":"1"}},{"base_weights":[3.2050518E-4,-3.875567E-2,3.2939992E0,-1.3320817E-1,3.9627436E-1,2.3619242E0,5.1459002E0,-2.3856428E-1,-3.5655696E-2,2.6718217E-1,8.4506804E-1,2.5174813E0,-1.0895636E1,-1.7668962E0,5.40137E0,-3.4902963E-1,-2.0561981E-1,-1.0834609E-1,2.0343462E-2,2.719086E-1,-7.186671E0,8.6248606E-1,-4.2200704E0,2.3247054E0,1.8282951E1,2.6170835E1,-3.4334953E1,1.2607956E1,-2.3779459E1,-6.147423E0,5.6694903E0,-3.006336E-1,-8.6006445E-1,6.319327E-2,-2.1284258E-1,4.8820753E-2,-1.270469E-1,4.131116E-1,7.0201787E-3,2.1541539E-1,4.7848034E-1,1.3953263E0,-2.329942E1,8.325404E-1,6.1158247E0,6.3047357E0,-1.2924095E1,2.226618E0,2.0629261E1,3.6000336E1,-2.6814845E0,-1.3322073E0,2.823273E1,-9.498033E1,-1.2154682E1,9.470256E0,1.0368128E1,-3.7548578E0,-8.331685E1,8.256997E0,-4.8801823E1,-6.187281E0,5.8770123E0,-1.07747115E-1,7.4900605E-2,-3.3964658E-1,-1.7651258E-1,-4.7018293E-2,8.358432E-2,-1.9890365E-1,-6.2015317E-2,-2.0415822E-2,1.5722176E-1,-2.150516E-1,-3.422713E-2,5.7261404E-2,1.7561708E-1,-1.89535E-1,5.0003584E-3,7.146893E-2,-1.4091785E-1,1.469979E-1,-1.380264E0,-7.4694186E-1,1.9105655E0,-2.3195961E1,1.0120373E0,2.4152304E-1,1.673839E0,3.7196524E0,5.2178586E-1,3.0209079E0,-7.8259283E-1,-6.3459265E-1,-6.0592723E0,6.258969E-1,3.9062884E0,9.14058E0,2.3229182E0,1.2783334E1,2.3893096E0,1.1455023E0,-9.865585E0,1.0943951E1,4.318428E0,1.2686167E0,-2.1060417E1,1.5560298E0,6.951675E0,4.92854E0,-2.7458203E0,1.1041138E0,-3.565555E1,6.3709874E0,1.375828E0,-9.123001E-2,-4.007905E1,6.7676177E0,-7.3688464E0,-1.6889217E0,1.8344703E0],"categories":[],"categories_nodes":[],"categories_segments":[],"categories_sizes":[],"default_left":[0,0,0,0,0,0,0,0,0,0,0,0,0,0,0,0,0,0,0,0,0,0,0,0,0,0,0,0,0,0,0,0,0,0,0,0,0,0,0,0,0,0,0,0,0,0,0,0,0,0,0,0,0,0,0,0,0,0,0,0,0,0,0,0,0,0,0,0,0,0,0,0,0,0,0,0,0,0,0,0,0,0,0,0,0,0,0,0,0,0,0,0,0,0,0,0,0,0,0,0,0,0,0,0,0,0,0,0,0,0,0,0,0,0,0,0,0,0,0,0,0],"id":15,"left_children":[1,3,5,7,9,11,13,15,17,19,21,23,25,27,29,31,33,35,37,39,41,43,45,47,49,51,53,55,57,59,61,63,65,67,69,71,73,75,77,79,81,83,85,87,89,91,93,95,97,99,101,-1,103,-1,105,107,-1,109,111,113,115,117,119,-1,-1,-1,-1,-1,-1,-1,-1,-1,-1,-1,-1,-1,-1,-1,-1,-1,-1,-1,-1,-1,-1,-1,-1,-1,-1,-1,-1,-1,-1,-1,-1,-1,-1,-1,-1,-1,-1,-1,-1,-1,-1,-1,-1,-1,-1,-1,-1,-1,-1,-1,-1,-1,-1,-1,-1,-1,-1],"loss_changes":[6.37326E4,2.0108518E4,1.0009648E4,4.132489E3,5.05751E3,7.9961875E3,3.4408984E3,7.0342285E2,8.4983777E2,2.3905186E3,1.7241084E3,1.1567254E4,3.9995145E4,2.244972E4,5.837633E3,1.0979932E3,2.891211E2,2.6702173E2,6.171045E2,7.9061426E2,5.978532E3,3.0523184E3,6.219231E3,6.731867E3,1.7182543E4,1.2614932E3,1.714525E5,2.6345552E3,3.3069105E4,2.6822668E4,4.544078E3,1.306541E3,2.832766E2,1.8466643E2,3.9968408E2,5.366495E2,6.203259E2,1.480216E2,7.029531E2,8.318093E2,8.5309204E2,5.76184E2,2.1874045E4,2.5149932E3,3.0032002E3,1.066581E3,2.8661226E3,5.6609023E3,2.299914E3,4.294117E3,4.444594E3,0E0,1.4149756E3,0E0,2.5973932E4,2.1688123E3,0E0,